{"learner":{"attributes":{"best_iteration":"599","best_score":"2715.528003690898","scikit_learn":"{\"_estimator_type\": \"regressor\"}"},"feature_names":["dayofyear","hour","dayofweek","weekofyear","quarter","month","year"],"feature_types":["int","int","int","int","int","int","int"],"gradient_booster":{"model":{"gbtree_model_param":{"num_parallel_tree":"1","num_trees":"600"},"iteration_indptr":[0,1,2,3,4,5,6,7,8,9,10,11,12,13,14,15,16,17,18,19,20,21,22,23,24,25,26,27,28,29,30,31,32,33,34,35,36,37,38,39,40,41,42,43,44,45,46,47,48,49,50,51,52,53,54,55,56,57,58,59,60,61,62,63,64,65,66,67,68,69,70,71,72,73,74,75,76,77,78,79,80,81,82,83,84,85,86,87,88,89,90,91,92,93,94,95,96,97,98,99,100,101,102,103,104,105,106,107,108,109,110,111,112,113,114,115,116,117,118,119,120,121,122,123,124,125,126,127,128,129,130,131,132,133,134,135,136,137,138,139,140,141,142,143,144,145,146,147,148,149,150,151,152,153,154,155,156,157,158,159,160,161,162,163,164,165,166,167,168,169,170,171,172,173,174,175,176,177,178,179,180,181,182,183,184,185,186,187,188,189,190,191,192,193,194,195,196,197,198,199,200,201,202,203,204,205,206,207,208,209,210,211,212,213,214,215,216,217,218,219,220,221,222,223,224,225,226,227,228,229,230,231,232,233,234,235,236,237,238,239,240,241,242,243,244,245,246,247,248,249,250,251,252,253,254,255,256,257,258,259,260,261,262,263,264,265,266,267,268,269,270,271,272,273,274,275,276,277,278,279,280,281,282,283,284,285,286,287,288,289,290,291,292,293,294,295,296,297,298,299,300,301,302,303,304,305,306,307,308,309,310,311,312,313,314,315,316,317,318,319,320,321,322,323,324,325,326,327,328,329,330,331,332,333,334,335,336,337,338,339,340,341,342,343,344,345,346,347,348,349,350,351,352,353,354,355,356,357,358,359,360,361,362,363,364,365,366,367,368,369,370,371,372,373,374,375,376,377,378,379,380,381,382,383,384,385,386,387,388,389,390,391,392,393,394,395,396,397,398,399,400,401,402,403,404,405,406,407,408,409,410,411,412,413,414,415,416,417,418,419,420,421,422,423,424,425,426,427,428,429,430,431,432,433,434,435,436,437,438,439,440,441,442,443,444,445,446,447,448,449,450,451,452,453,454,455,456,457,458,459,460,461,462,463,464,465,466,467,468,469,470,471,472,473,474,475,476,477,478,479,480,481,482,483,484,485,486,487,488,489,490,491,492,493,494,495,496,497,498,499,500,501,502,503,504,505,506,507,508,509,510,511,512,513,514,515,516,517,518,519,520,521,522,523,524,525,526,527,528,529,530,531,532,533,534,535,536,537,538,539,540,541,542,543,544,545,546,547,548,549,550,551,552,553,554,555,556,557,558,559,560,561,562,563,564,565,566,567,568,569,570,571,572,573,574,575,576,577,578,579,580,581,582,583,584,585,586,587,588,589,590,591,592,593,594,595,596,597,598,599,600],"tree_info":[0,0,0,0,0,0,0,0,0,0,0,0,0,0,0,0,0,0,0,0,0,0,0,0,0,0,0,0,0,0,0,0,0,0,0,0,0,0,0,0,0,0,0,0,0,0,0,0,0,0,0,0,0,0,0,0,0,0,0,0,0,0,0,0,0,0,0,0,0,0,0,0,0,0,0,0,0,0,0,0,0,0,0,0,0,0,0,0,0,0,0,0,0,0,0,0,0,0,0,0,0,0,0,0,0,0,0,0,0,0,0,0,0,0,0,0,0,0,0,0,0,0,0,0,0,0,0,0,0,0,0,0,0,0,0,0,0,0,0,0,0,0,0,0,0,0,0,0,0,0,0,0,0,0,0,0,0,0,0,0,0,0,0,0,0,0,0,0,0,0,0,0,0,0,0,0,0,0,0,0,0,0,0,0,0,0,0,0,0,0,0,0,0,0,0,0,0,0,0,0,0,0,0,0,0,0,0,0,0,0,0,0,0,0,0,0,0,0,0,0,0,0,0,0,0,0,0,0,0,0,0,0,0,0,0,0,0,0,0,0,0,0,0,0,0,0,0,0,0,0,0,0,0,0,0,0,0,0,0,0,0,0,0,0,0,0,0,0,0,0,0,0,0,0,0,0,0,0,0,0,0,0,0,0,0,0,0,0,0,0,0,0,0,0,0,0,0,0,0,0,0,0,0,0,0,0,0,0,0,0,0,0,0,0,0,0,0,0,0,0,0,0,0,0,0,0,0,0,0,0,0,0,0,0,0,0,0,0,0,0,0,0,0,0,0,0,0,0,0,0,0,0,0,0,0,0,0,0,0,0,0,0,0,0,0,0,0,0,0,0,0,0,0,0,0,0,0,0,0,0,0,0,0,0,0,0,0,0,0,0,0,0,0,0,0,0,0,0,0,0,0,0,0,0,0,0,0,0,0,0,0,0,0,0,0,0,0,0,0,0,0,0,0,0,0,0,0,0,0,0,0,0,0,0,0,0,0,0,0,0,0,0,0,0,0,0,0,0,0,0,0,0,0,0,0,0,0,0,0,0,0,0,0,0,0,0,0,0,0,0,0,0,0,0,0,0,0,0,0,0,0,0,0,0,0,0,0,0,0,0,0,0,0,0,0,0,0,0,0,0,0,0,0,0,0,0,0,0,0,0,0,0,0,0,0,0,0,0,0,0,0,0,0,0,0,0,0,0,0,0,0,0,0,0,0,0,0,0,0,0,0,0,0,0,0,0,0,0,0,0,0,0,0,0,0,0,0,0,0,0,0,0,0,0,0,0,0,0,0,0,0,0,0,0,0,0,0,0,0,0,0,0,0,0,0,0,0,0,0,0,0,0,0,0,0,0,0,0,0,0],"trees":[{"base_weights":[3.2053502E4,2.7116855E4,3.4520902E4,3.0197076E4,2.6418924E4,3.5652645E4,3.168086E4,2.9641932E4,3.4053004E4,2.4703373E4,2.7232297E4,3.6625375E4,3.321022E4,2.8759467E4,3.2338295E4,2.6235098E2,2.9858982E4,3.553138E2,3.010849E2,2.6892477E4,2.407174E4,2.9179967E4,2.5829115E4,3.4046914E4,4.092509E4,3.226525E4,3.558959E4,3.2223807E2,2.7984332E4,3.0367555E4,3.374372E4,3.144716E2,2.9601342E4,2.6379543E4,3.0342844E4,2.3718234E4,2.6488287E4,3.2262875E4,2.8145387E4,2.4871234E4,2.869079E4,3.649809E4,3.2327156E4,3.573576E4,4.2126316E4,3.308348E4,3.121432E4,3.6611582E4,3.423195E4,2.6215705E4,2.8851695E4,3.3328766E4,2.8129021E4,3.724871E4,3.0263535E4,2.924924E2,3.129657E2,2.795211E2,2.6094757E2,3.1917844E2,2.6156613E2,2.6289948E2,2.32843E2,2.796307E2,2.2653008E2,3.3599747E2,3.090687E2,2.8825842E2,2.6453415E2,2.4464587E2,2.770444E2,2.8205643E2,3.1992593E2,3.6887115E2,3.4696335E2,3.1718945E2,3.552034E2,3.345249E2,3.6838873E2,4.2897113E2,3.871503E2,3.5421436E2,3.2647665E2,3.2917773E2,3.0801465E2,3.73675E2,3.4644055E2,3.3332547E2,3.5366565E2,2.5824194E2,2.9781262E2,2.7063763E2,2.967174E2,3.2272043E2,3.453283E2,2.9289682E2,2.7630405E2,3.4184332E2,3.8275797E2,2.9227127E2,3.2968027E2],"categories":[],"categories_nodes":[],"categories_segments":[],"categories_sizes":[],"default_left":[0,0,0,0,0,0,0,0,0,0,0,0,0,0,0,0,0,0,0,0,0,0,0,0,0,0,0,0,0,0,0,0,0,0,0,0,0,0,0,0,0,0,0,0,0,0,0,0,0,0,0,0,0,0,0,0,0,0,0,0,0,0,0,0,0,0,0,0,0,0,0,0,0,0,0,0,0,0,0,0,0,0,0,0,0,0,0,0,0,0,0,0,0,0,0,0,0,0,0,0,0],"id":0,"left_children":[1,3,5,7,9,11,13,15,17,19,21,23,25,27,29,-1,31,-1,-1,33,35,37,39,41,43,45,47,-1,49,51,53,-1,55,57,59,61,63,65,67,69,71,73,75,77,79,81,83,85,87,89,91,93,95,97,99,-1,-1,-1,-1,-1,-1,-1,-1,-1,-1,-1,-1,-1,-1,-1,-1,-1,-1,-1,-1,-1,-1,-1,-1,-1,-1,-1,-1,-1,-1,-1,-1,-1,-1,-1,-1,-1,-1,-1,-1,-1,-1,-1,-1,-1,-1],"loss_changes":[1.4148142E12,8.248099E10,2.4795048E11,1.4293664E10,4.3404755E10,1.304093E11,4.1496347E10,3.8435553E9,4.1377464E9,1.341653E10,5.7785975E10,4.3778048E11,3.4357641E10,1.0019144E10,4.8897196E10,0E0,1.4732493E9,0E0,0E0,3.2154583E9,6.1226353E9,2.767664E10,3.343804E10,1.0323231E11,9.103108E10,8.694792E9,4.9613373E9,0E0,4.3536876E9,4.8864166E10,1.27098946E11,0E0,2.111832E9,1.5859712E8,1.057407E9,7.092306E9,5.0227446E9,3.031171E9,6.971982E9,1.0085204E10,4.0920678E9,5.873074E9,2.7160216E10,5.812519E9,3.002073E10,5.3073674E9,2.481455E9,2.484863E9,7.9980134E8,7.762084E8,2.4591729E9,2.9939466E9,1.6706437E9,1.516136E10,1.383596E10,0E0,0E0,0E0,0E0,0E0,0E0,0E0,0E0,0E0,0E0,0E0,0E0,0E0,0E0,0E0,0E0,0E0,0E0,0E0,0E0,0E0,0E0,0E0,0E0,0E0,0E0,0E0,0E0,0E0,0E0,0E0,0E0,0E0,0E0,0E0,0E0,0E0,0E0,0E0,0E0,0E0,0E0,0E0,0E0,0E0,0E0],"parents":[2147483647,0,0,1,1,2,2,3,3,4,4,5,5,6,6,7,7,8,8,9,9,10,10,11,11,12,12,13,13,14,14,16,16,19,19,20,20,21,21,22,22,23,23,24,24,25,25,26,26,28,28,29,29,30,30,32,32,33,33,34,34,35,35,36,36,37,37,38,38,39,39,40,40,41,41,42,42,43,43,44,44,45,45,46,46,47,47,48,48,49,49,50,50,51,51,52,52,53,53,54,54],"right_children":[2,4,6,8,10,12,14,16,18,20,22,24,26,28,30,-1,32,-1,-1,34,36,38,40,42,44,46,48,-1,50,52,54,-1,56,58,60,62,64,66,68,70,72,74,76,78,80,82,84,86,88,90,92,94,96,98,100,-1,-1,-1,-1,-1,-1,-1,-1,-1,-1,-1,-1,-1,-1,-1,-1,-1,-1,-1,-1,-1,-1,-1,-1,-1,-1,-1,-1,-1,-1,-1,-1,-1,-1,-1,-1,-1,-1,-1,-1,-1,-1,-1,-1,-1,-1],"split_conditions":[8E0,6.7E1,5E0,7E0,1.6E2,2.59E2,1.1E1,2.003E3,5E0,8.8E1,9E0,1.61E2,3.36E2,6.7E1,1.49E2,2.6235098E2,1E0,3.553138E2,3.010849E2,7E0,7E0,2E0,3.36E2,6.7E1,1.1E1,2.011E3,2.011E3,3.2223807E2,9E0,6.5E1,2.55E2,3.144716E2,6E0,1E0,5E0,1E0,5E0,1E0,5E0,7E0,7E0,2.016E3,1.46E2,9E0,2.4E2,2.71E2,2.74E2,3.58E2,1.7E1,3.35E2,1.6E2,1.8E1,9E1,1.75E2,3.35E2,2.924924E2,3.129657E2,2.795211E2,2.6094757E2,3.1917844E2,2.6156613E2,2.6289948E2,2.32843E2,2.796307E2,2.2653008E2,3.3599747E2,3.090687E2,2.8825842E2,2.6453415E2,2.4464587E2,2.770444E2,2.8205643E2,3.1992593E2,3.6887115E2,3.4696335E2,3.1718945E2,3.552034E2,3.345249E2,3.6838873E2,4.2897113E2,3.871503E2,3.5421436E2,3.2647665E2,3.2917773E2,3.0801465E2,3.73675E2,3.4644055E2,3.3332547E2,3.5366565E2,2.5824194E2,2.9781262E2,2.7063763E2,2.967174E2,3.2272043E2,3.453283E2,2.9289682E2,2.7630405E2,3.4184332E2,3.8275797E2,2.9227127E2,3.2968027E2],"split_indices":[1,0,2,1,0,0,1,6,2,0,5,0,0,0,0,0,1,0,0,1,1,1,0,0,1,6,6,0,1,0,0,0,1,1,2,1,2,1,2,1,1,6,0,1,0,0,0,0,1,0,0,1,0,0,0,0,0,0,0,0,0,0,0,0,0,0,0,0,0,0,0,0,0,0,0,0,0,0,0,0,0,0,0,0,0,0,0,0,0,0,0,0,0,0,0,0,0,0,0,0,0],"split_type":[0,0,0,0,0,0,0,0,0,0,0,0,0,0,0,0,0,0,0,0,0,0,0,0,0,0,0,0,0,0,0,0,0,0,0,0,0,0,0,0,0,0,0,0,0,0,0,0,0,0,0,0,0,0,0,0,0,0,0,0,0,0,0,0,0,0,0,0,0,0,0,0,0,0,0,0,0,0,0,0,0,0,0,0,0,0,0,0,0,0,0,0,0,0,0,0,0,0,0,0,0],"sum_hessian":[1.16228E5,3.8737E4,7.7491E4,7.148E3,3.1589E4,5.5402E4,2.2089E4,6.256E3,8.92E2,1.017E4,2.1419E4,3.9612E4,1.579E4,4.066E3,1.8023E4,3.82E2,5.874E3,6.43E2,2.49E2,2.268E3,7.902E3,8.961E3,1.2458E4,2.4768E4,1.4844E4,1.1312E4,4.478E3,7.36E2,3.33E3,7.512E3,1.0511E4,8.03E2,5.071E3,1.982E3,2.86E2,6.903E3,9.99E2,2.244E3,6.717E3,9.341E3,3.117E3,1.0204E4,1.4564E4,2.796E3,1.2048E4,6.343E3,4.969E3,2.54E3,1.938E3,1.106E3,2.224E3,3.228E3,4.284E3,5.232E3,5.279E3,4.214E3,8.57E2,2.89E2,1.693E3,2.03E2,8.3E1,9.88E2,5.915E3,7.17E2,2.82E2,1.118E3,1.126E3,4.779E3,1.938E3,8.177E3,1.164E3,2.726E3,3.91E2,8.376E3,1.828E3,1.2243E4,2.321E3,9.21E2,1.875E3,9.818E3,2.23E3,9.84E2,5.359E3,9.54E2,4.015E3,1.822E3,7.18E2,1.098E3,8.4E2,1.004E3,1.02E2,7.1E2,1.514E3,1.734E3,1.494E3,1.27E3,3.014E3,1.322E3,3.91E3,3.825E3,1.454E3],"tree_param":{"num_deleted":"0","num_feature":"7","num_nodes":"101","size_leaf_vector":"1"}},{"base_weights":[3.1741904E4,2.6866713E4,3.417799E4,2.9948531E4,2.6202828E4,3.5309777E4,3.133095E4,2.94199E4,3.3604188E4,2.4645059E4,2.6985037E4,3.6262926E4,3.2870594E4,2.8506244E4,3.1983045E4,2.592294E2,2.9640883E4,3.5059045E2,2.992574E2,2.6716639E4,2.3828428E4,2.8930922E4,2.5583656E4,3.3706438E4,4.053435E4,3.1955059E4,3.521017E4,3.2084467E2,2.771264E4,3.0099838E4,3.3378617E4,3.1264972E2,2.9366025E4,2.6184498E4,3.0353812E4,2.6180467E4,2.3485691E4,3.1934936E4,2.7905672E4,2.4661738E4,2.8393195E4,3.6294652E4,3.2203713E4,3.537881E4,4.173282E4,3.301866E4,3.112891E4,3.6266566E4,3.379809E4,2.5974316E4,2.8557016E4,3.2974152E4,2.8053086E4,3.6933547E4,2.9927775E4,2.9017343E2,3.105775E2,2.7397202E2,2.5757828E2,3.2015353E2,2.556029E2,2.5527385E2,2.8578107E2,2.3054466E2,2.6067828E2,3.330328E2,3.054309E2,2.854809E2,2.626012E2,2.4251321E2,2.745949E2,2.7922903E2,3.152278E2,3.664214E2,3.4670166E2,3.173973E2,3.5117276E2,3.3123065E2,3.646471E2,4.2368442E2,3.7938907E2,3.4536642E2,3.243473E2,3.2813535E2,3.0695395E2,3.5365842E2,3.7716888E2,3.2931662E2,3.488455E2,2.544994E2,2.8738675E2,2.6740338E2,2.925948E2,3.1955392E2,3.4126407E2,2.7607196E2,3.111376E2,3.4631213E2,3.774487E2,2.8908362E2,3.255772E2],"categories":[],"categories_nodes":[],"categories_segments":[],"categories_sizes":[],"default_left":[0,0,0,0,0,0,0,0,0,0,0,0,0,0,0,0,0,0,0,0,0,0,0,0,0,0,0,0,0,0,0,0,0,0,0,0,0,0,0,0,0,0,0,0,0,0,0,0,0,0,0,0,0,0,0,0,0,0,0,0,0,0,0,0,0,0,0,0,0,0,0,0,0,0,0,0,0,0,0,0,0,0,0,0,0,0,0,0,0,0,0,0,0,0,0,0,0,0,0,0,0],"id":1,"left_children":[1,3,5,7,9,11,13,15,17,19,21,23,25,27,29,-1,31,-1,-1,33,35,37,39,41,43,45,47,-1,49,51,53,-1,55,57,59,61,63,65,67,69,71,73,75,77,79,81,83,85,87,89,91,93,95,97,99,-1,-1,-1,-1,-1,-1,-1,-1,-1,-1,-1,-1,-1,-1,-1,-1,-1,-1,-1,-1,-1,-1,-1,-1,-1,-1,-1,-1,-1,-1,-1,-1,-1,-1,-1,-1,-1,-1,-1,-1,-1,-1,-1,-1,-1,-1],"loss_changes":[1.3773088E12,7.833492E10,2.4821052E11,1.2242649E10,3.8111543E10,1.2751104E11,3.9648756E10,3.8603325E9,3.5425485E9,1.7380671E10,5.7005834E10,4.331919E11,3.2214352E10,1.0864558E10,4.5988446E10,0E0,1.5938355E9,0E0,0E0,5.017436E9,5.550375E9,2.6390036E10,3.1207719E10,9.5678366E10,9.055502E10,8.811184E9,5.2895416E9,0E0,4.24149E9,4.3909644E10,1.2477111E11,0E0,1.9469435E9,6.5365606E8,2.1843476E9,7.7994394E8,6.842745E9,3.26212E9,6.2406E9,9.992929E9,3.5898E9,3.8881198E9,2.0193477E10,5.6900977E9,2.752512E10,3.2044483E9,3.60815E9,1.9126026E9,6.2468915E8,8.935178E8,2.120745E9,2.6235372E9,5.224792E9,8.126464E9,1.3031703E10,0E0,0E0,0E0,0E0,0E0,0E0,0E0,0E0,0E0,0E0,0E0,0E0,0E0,0E0,0E0,0E0,0E0,0E0,0E0,0E0,0E0,0E0,0E0,0E0,0E0,0E0,0E0,0E0,0E0,0E0,0E0,0E0,0E0,0E0,0E0,0E0,0E0,0E0,0E0,0E0,0E0,0E0,0E0,0E0,0E0,0E0],"parents":[2147483647,0,0,1,1,2,2,3,3,4,4,5,5,6,6,7,7,8,8,9,9,10,10,11,11,12,12,13,13,14,14,16,16,19,19,20,20,21,21,22,22,23,23,24,24,25,25,26,26,28,28,29,29,30,30,32,32,33,33,34,34,35,35,36,36,37,37,38,38,39,39,40,40,41,41,42,42,43,43,44,44,45,45,46,46,47,47,48,48,49,49,50,50,51,51,52,52,53,53,54,54],"right_children":[2,4,6,8,10,12,14,16,18,20,22,24,26,28,30,-1,32,-1,-1,34,36,38,40,42,44,46,48,-1,50,52,54,-1,56,58,60,62,64,66,68,70,72,74,76,78,80,82,84,86,88,90,92,94,96,98,100,-1,-1,-1,-1,-1,-1,-1,-1,-1,-1,-1,-1,-1,-1,-1,-1,-1,-1,-1,-1,-1,-1,-1,-1,-1,-1,-1,-1,-1,-1,-1,-1,-1,-1,-1,-1,-1,-1,-1,-1,-1,-1,-1,-1,-1,-1],"split_conditions":[8E0,1E1,5E0,7E0,2.4E1,3.8E1,1.1E1,2.003E3,5E0,4E0,9E0,2.4E1,1.2E1,1E1,6E0,2.592294E2,1E0,3.5059045E2,2.992574E2,7E0,1E0,2E0,1.2E1,3E0,1.1E1,2.009E3,2.011E3,3.2084467E2,9E0,1E1,3.7E1,3.1264972E2,6E0,1.1E1,5E0,2.2E1,7E0,1E0,5E0,7E0,7E0,2.016E3,2.2E1,9E0,9E0,4.1E1,1E1,1.8E1,1.7E1,4.7E1,2.2E1,1.8E1,2.1E1,2.6E1,1.2E1,2.9017343E2,3.105775E2,2.7397202E2,2.5757828E2,3.2015353E2,2.556029E2,2.5527385E2,2.8578107E2,2.3054466E2,2.6067828E2,3.330328E2,3.054309E2,2.854809E2,2.626012E2,2.4251321E2,2.745949E2,2.7922903E2,3.152278E2,3.664214E2,3.4670166E2,3.173973E2,3.5117276E2,3.3123065E2,3.646471E2,4.2368442E2,3.7938907E2,3.4536642E2,3.243473E2,3.2813535E2,3.0695395E2,3.5365842E2,3.7716888E2,3.2931662E2,3.488455E2,2.544994E2,2.8738675E2,2.6740338E2,2.925948E2,3.1955392E2,3.4126407E2,2.7607196E2,3.111376E2,3.4631213E2,3.774487E2,2.8908362E2,3.255772E2],"split_indices":[1,3,2,1,3,3,1,6,2,5,5,3,5,3,5,0,1,0,0,1,1,1,5,5,1,6,6,0,1,3,3,0,1,3,2,3,1,1,2,1,1,6,3,1,5,3,5,1,1,3,3,1,3,3,5,0,0,0,0,0,0,0,0,0,0,0,0,0,0,0,0,0,0,0,0,0,0,0,0,0,0,0,0,0,0,0,0,0,0,0,0,0,0,0,0,0,0,0,0,0,0],"split_type":[0,0,0,0,0,0,0,0,0,0,0,0,0,0,0,0,0,0,0,0,0,0,0,0,0,0,0,0,0,0,0,0,0,0,0,0,0,0,0,0,0,0,0,0,0,0,0,0,0,0,0,0,0,0,0,0,0,0,0,0,0,0,0,0,0,0,0,0,0,0,0,0,0,0,0,0,0,0,0,0,0,0,0,0,0,0,0,0,0,0,0,0,0,0,0,0,0,0,0,0,0],"sum_hessian":[1.16046E5,3.867E4,7.7376E4,6.846E3,3.1824E4,5.5358E4,2.2018E4,5.989E3,8.57E2,1.0649E4,2.1175E4,3.9794E4,1.5564E4,4.138E3,1.788E4,3.63E2,5.626E3,6.08E2,2.49E2,3.002E3,7.647E3,8.857E3,1.2318E4,2.49E4,1.4894E4,1.1197E4,4.367E3,7.44E2,3.394E3,7.62E3,1.026E4,7.98E2,4.828E3,2.626E3,3.76E2,9.63E2,6.684E3,2.246E3,6.611E3,9.282E3,3.036E3,9.138E3,1.5762E4,2.815E3,1.2079E4,4.878E3,6.319E3,2.484E3,1.883E3,1.12E3,2.274E3,3.163E3,4.457E3,5.049E3,5.211E3,4.018E3,8.1E2,6.67E2,1.959E3,2.75E2,1.01E2,7.66E2,1.97E2,5.736E3,9.48E2,1.121E3,1.125E3,4.743E3,1.868E3,8.103E3,1.179E3,2.648E3,3.88E2,7.51E3,1.628E3,1.3607E4,2.155E3,9.25E2,1.89E3,1.0337E4,1.742E3,1.339E3,3.539E3,1.278E3,5.041E3,1.548E3,9.36E2,1.065E3,8.18E2,9.5E2,1.7E2,6.45E2,1.629E3,1.694E3,1.469E3,3.899E3,5.58E2,1.327E3,3.722E3,3.764E3,1.447E3],"tree_param":{"num_deleted":"0","num_feature":"7","num_nodes":"101","size_leaf_vector":"1"}},{"base_weights":[3.1423598E4,2.6594254E4,3.3825645E4,2.9670832E4,2.5893693E4,3.494764E4,3.1016736E4,2.9133623E4,3.3356445E4,2.4192688E4,2.6698102E4,3.5889137E4,3.2533045E4,2.7483594E4,3.1522834E4,3.0660272E2,2.8871766E4,3.4799945E2,2.9534796E2,2.6285023E4,2.3577662E4,2.8578309E4,2.5348844E4,3.336807E4,4.013362E4,3.1649957E4,3.4911426E4,3.1323798E2,2.6646836E4,2.9739486E4,3.276E4,2.8540812E4,3.0468795E4,2.5780594E4,2.9752127E4,2.3251684E4,2.5830215E4,3.1648432E4,2.755784E4,2.441229E4,2.8147988E4,3.5771246E4,3.1707191E4,3.5051844E4,4.13007E4,3.352832E4,3.122033E4,3.413169E4,3.61634E4,2.6231332E4,2.9371286E2,3.2637992E4,2.7446266E4,3.6302176E4,2.9826008E4,2.8850937E2,2.751516E2,3.123877E2,2.8432584E2,2.727801E2,2.5516513E2,3.130968E2,2.558423E2,2.579472E2,2.2824326E2,2.7367444E2,2.213458E2,3.3046875E2,3.0218985E2,2.8221506E2,2.5879257E2,2.400326E2,2.7247684E2,2.7681912E2,3.146688E2,3.6302573E2,3.464141E2,3.1045663E2,3.4491064E2,3.2860483E2,3.6140436E2,4.204901E2,3.796694E2,3.0807715E2,3.4131854E2,3.1420535E2,2.809654E2,3.459601E2,3.2843246E2,3.7323804E2,3.373912E2,2.5295425E2,2.7142926E2,3.174174E2,3.3810358E2,2.871029E2,2.688604E2,3.3021918E2,3.7606787E2,2.9012692E2,3.2136487E2],"categories":[],"categories_nodes":[],"categories_segments":[],"categories_sizes":[],"default_left":[0,0,0,0,0,0,0,0,0,0,0,0,0,0,0,0,0,0,0,0,0,0,0,0,0,0,0,0,0,0,0,0,0,0,0,0,0,0,0,0,0,0,0,0,0,0,0,0,0,0,0,0,0,0,0,0,0,0,0,0,0,0,0,0,0,0,0,0,0,0,0,0,0,0,0,0,0,0,0,0,0,0,0,0,0,0,0,0,0,0,0,0,0,0,0,0,0,0,0,0,0],"id":2,"left_children":[1,3,5,7,9,11,13,15,17,19,21,23,25,27,29,-1,31,-1,-1,33,35,37,39,41,43,45,47,-1,49,51,53,55,57,59,61,63,65,67,69,71,73,75,77,79,81,83,85,87,89,91,-1,93,95,97,99,-1,-1,-1,-1,-1,-1,-1,-1,-1,-1,-1,-1,-1,-1,-1,-1,-1,-1,-1,-1,-1,-1,-1,-1,-1,-1,-1,-1,-1,-1,-1,-1,-1,-1,-1,-1,-1,-1,-1,-1,-1,-1,-1,-1,-1,-1],"loss_changes":[1.3513964E12,8.270119E10,2.4425949E11,1.3237223E10,4.252605E10,1.2527547E11,3.8883295E10,1.6216228E9,3.970171E9,1.2430344E10,5.3596914E10,4.2676204E11,3.1689015E10,8.1402266E9,4.1909486E10,0E0,1.9687014E9,0E0,0E0,3.2467845E9,5.1616154E9,2.7129807E10,3.2016695E10,9.906736E10,8.693953E10,8.1495327E9,2.883584E9,0E0,1.833304E9,5.209273E10,1.1808014E11,6.257377E8,5.339218E8,9.909043E7,1.0491003E9,6.872105E9,4.978639E9,3.4450964E9,6.7512566E9,1.0195304E10,3.9565394E9,4.89685E9,2.6284655E10,5.4680617E9,2.8624028E10,2.4098898E9,4.9272586E9,4.2912973E8,3.24744E9,1.02393446E9,0E0,2.6209157E9,2.384724E9,2.0968374E10,1.0862723E10,0E0,0E0,0E0,0E0,0E0,0E0,0E0,0E0,0E0,0E0,0E0,0E0,0E0,0E0,0E0,0E0,0E0,0E0,0E0,0E0,0E0,0E0,0E0,0E0,0E0,0E0,0E0,0E0,0E0,0E0,0E0,0E0,0E0,0E0,0E0,0E0,0E0,0E0,0E0,0E0,0E0,0E0,0E0,0E0,0E0,0E0],"parents":[2147483647,0,0,1,1,2,2,3,3,4,4,5,5,6,6,7,7,8,8,9,9,10,10,11,11,12,12,13,13,14,14,16,16,19,19,20,20,21,21,22,22,23,23,24,24,25,25,26,26,28,28,29,29,30,30,31,31,32,32,33,33,34,34,35,35,36,36,37,37,38,38,39,39,40,40,41,41,42,42,43,43,44,44,45,45,46,46,47,47,48,48,49,49,51,51,52,52,53,53,54,54],"right_children":[2,4,6,8,10,12,14,16,18,20,22,24,26,28,30,-1,32,-1,-1,34,36,38,40,42,44,46,48,-1,50,52,54,56,58,60,62,64,66,68,70,72,74,76,78,80,82,84,86,88,90,92,-1,94,96,98,100,-1,-1,-1,-1,-1,-1,-1,-1,-1,-1,-1,-1,-1,-1,-1,-1,-1,-1,-1,-1,-1,-1,-1,-1,-1,-1,-1,-1,-1,-1,-1,-1,-1,-1,-1,-1,-1,-1,-1,-1,-1,-1,-1,-1,-1,-1],"split_conditions":[8E0,6.7E1,5E0,7E0,1.6E2,3.8E1,1E1,1E0,5E0,8.8E1,9E0,2.4E1,3.36E2,1E1,1.47E2,3.0660272E2,6E0,3.4799945E2,2.9534796E2,7E0,7E0,2E0,3.36E2,6.7E1,1.1E1,2.73E2,1.8E1,3.1323798E2,3.27E2,6.5E1,2.45E2,5.1E1,5E0,1E0,5E0,1E0,5E0,1E0,5E0,7E0,7E0,4.6E1,1.44E2,9E0,2.4E2,1.1E1,2.3E1,3.57E2,2.2E1,9E0,2.9371286E2,1.8E1,9E1,1.75E2,3.35E2,2.8850937E2,2.751516E2,3.123877E2,2.8432584E2,2.727801E2,2.5516513E2,3.130968E2,2.558423E2,2.579472E2,2.2824326E2,2.7367444E2,2.213458E2,3.3046875E2,3.0218985E2,2.8221506E2,2.5879257E2,2.400326E2,2.7247684E2,2.7681912E2,3.146688E2,3.6302573E2,3.464141E2,3.1045663E2,3.4491064E2,3.2860483E2,3.6140436E2,4.204901E2,3.796694E2,3.0807715E2,3.4131854E2,3.1420535E2,2.809654E2,3.459601E2,3.2843246E2,3.7323804E2,3.373912E2,2.5295425E2,2.7142926E2,3.174174E2,3.3810358E2,2.871029E2,2.688604E2,3.3021918E2,3.7606787E2,2.9012692E2,3.2136487E2],"split_indices":[1,0,2,1,0,3,1,1,2,0,5,3,0,3,0,0,1,0,0,1,1,1,0,0,1,0,1,0,0,0,0,0,2,1,2,1,2,1,2,1,1,0,0,1,0,1,1,0,1,1,0,1,0,0,0,0,0,0,0,0,0,0,0,0,0,0,0,0,0,0,0,0,0,0,0,0,0,0,0,0,0,0,0,0,0,0,0,0,0,0,0,0,0,0,0,0,0,0,0,0,0],"split_type":[0,0,0,0,0,0,0,0,0,0,0,0,0,0,0,0,0,0,0,0,0,0,0,0,0,0,0,0,0,0,0,0,0,0,0,0,0,0,0,0,0,0,0,0,0,0,0,0,0,0,0,0,0,0,0,0,0,0,0,0,0,0,0,0,0,0,0,0,0,0,0,0,0,0,0,0,0,0,0,0,0,0,0,0,0,0,0,0,0,0,0,0,0,0,0,0,0,0,0,0,0],"sum_hessian":[1.16573E5,3.8726E4,7.7847E4,7.175E3,3.1551E4,5.5619E4,2.2228E4,6.27E3,9.05E2,1.014E4,2.1411E4,4.0006E4,1.5613E4,2.792E3,1.9436E4,9.01E2,5.369E3,6.51E2,2.54E2,2.294E3,7.846E3,8.937E3,1.2474E4,2.5104E4,1.4902E4,1.1396E4,4.217E3,4.93E2,2.299E3,7.971E3,1.1465E4,4.463E3,9.06E2,2.01E3,2.84E2,6.864E3,9.82E2,2.222E3,6.715E3,9.354E3,3.12E3,1.0251E4,1.4853E4,2.789E3,1.2113E4,2.107E3,9.289E3,2.616E3,1.601E3,2.004E3,2.95E2,3.515E3,4.456E3,5.189E3,6.276E3,3.406E3,1.057E3,6.47E2,2.59E2,2.86E2,1.724E3,2.02E2,8.2E1,9.79E2,5.885E3,6.89E2,2.93E2,1.112E3,1.11E3,4.801E3,1.914E3,8.183E3,1.171E3,2.744E3,3.76E2,6.951E3,3.3E3,1.2011E4,2.842E3,9.36E2,1.853E3,9.883E3,2.23E3,3.92E2,1.715E3,8.721E3,5.68E2,1.904E3,7.12E2,1.073E3,5.28E2,1.003E3,1.001E3,2.008E3,1.507E3,1.353E3,3.103E3,1.484E3,3.705E3,4.652E3,1.624E3],"tree_param":{"num_deleted":"0","num_feature":"7","num_nodes":"101","size_leaf_vector":"1"}},{"base_weights":[3.1104256E4,2.6333805E4,3.348395E4,2.93517E4,2.5652121E4,3.4585625E4,3.0734996E4,2.8826908E4,3.3027055E4,2.3963344E4,2.6445463E4,3.5521785E4,3.2221385E4,2.7895326E4,3.1389098E4,3.029521E2,2.8573455E4,3.4467474E2,2.941805E2,2.6038402E4,2.3361752E4,2.8324656E4,2.5084748E4,3.3040547E4,3.9680508E4,3.1316955E4,3.4524742E4,3.1373798E2,2.712807E4,2.9476225E4,3.2705814E4,2.8256416E4,3.0158602E4,2.5561564E4,2.9494412E4,2.3019033E4,2.568602E4,3.1327316E4,2.732668E4,2.4164352E4,2.7854459E4,3.540428E4,3.1372016E4,3.4609688E4,4.084643E4,3.3210754E4,3.0893887E4,3.364652E4,3.5634387E4,2.549032E4,2.7933635E4,3.240064E4,2.7194334E4,3.603532E4,2.9361441E4,2.8562857E2,2.7090903E2,3.0940784E2,2.8053156E2,2.7156073E2,2.5288983E2,3.1067395E2,2.5479408E2,2.5545021E2,2.2594472E2,2.7153772E2,2.1963123E2,3.26053E2,3.0035153E2,2.7981174E2,2.566248E2,2.376825E2,2.688847E2,2.7392877E2,3.0997522E2,3.593853E2,3.4383963E2,3.0734708E2,3.4221017E2,3.2410474E2,3.5686487E2,4.151792E2,3.7220004E2,3.0658768E2,3.378773E2,3.110336E2,2.7781638E2,3.4153537E2,3.2459912E2,3.649898E2,3.3391754E2,2.5102718E2,2.8790875E2,2.6342883E2,2.8700354E2,3.1399875E2,3.351928E2,2.8429596E2,2.6638974E2,3.2984256E2,3.7096136E2,2.8347043E2,3.1928857E2],"categories":[],"categories_nodes":[],"categories_segments":[],"categories_sizes":[],"default_left":[0,0,0,0,0,0,0,0,0,0,0,0,0,0,0,0,0,0,0,0,0,0,0,0,0,0,0,0,0,0,0,0,0,0,0,0,0,0,0,0,0,0,0,0,0,0,0,0,0,0,0,0,0,0,0,0,0,0,0,0,0,0,0,0,0,0,0,0,0,0,0,0,0,0,0,0,0,0,0,0,0,0,0,0,0,0,0,0,0,0,0,0,0,0,0,0,0,0,0,0,0,0,0],"id":3,"left_children":[1,3,5,7,9,11,13,15,17,19,21,23,25,27,29,-1,31,-1,-1,33,35,37,39,41,43,45,47,-1,49,51,53,55,57,59,61,63,65,67,69,71,73,75,77,79,81,83,85,87,89,91,93,95,97,99,101,-1,-1,-1,-1,-1,-1,-1,-1,-1,-1,-1,-1,-1,-1,-1,-1,-1,-1,-1,-1,-1,-1,-1,-1,-1,-1,-1,-1,-1,-1,-1,-1,-1,-1,-1,-1,-1,-1,-1,-1,-1,-1,-1,-1,-1,-1,-1,-1],"loss_changes":[1.3201152E12,7.892841E10,2.3404216E11,1.2800492E10,4.1710256E10,1.215006E11,4.039744E10,1.4590935E9,3.5814769E9,1.2014584E10,5.424703E10,4.0820225E11,3.168587E10,1.0275258E10,4.4501565E10,0E0,1.8336973E9,0E0,0E0,2.9770383E9,5.6609997E9,2.617036E10,3.1129076E10,9.6945046E10,8.623279E10,8.0310436E9,3.1132221E9,0E0,3.8042337E9,4.8300556E10,1.1789874E11,8.2287E8,5.7461965E8,1.811415E8,9.009889E8,6.7690824E9,4.867883E9,2.7244626E9,6.6637005E9,9.472836E9,3.655598E9,4.3683676E9,2.542587E10,5.4219244E9,2.7791458E10,1.984168E9,5.170528E9,3.8823526E8,2.5388646E9,7.3570714E8,2.0295188E9,2.557739E9,2.0866662E9,1.6088826E10,1.2989235E10,0E0,0E0,0E0,0E0,0E0,0E0,0E0,0E0,0E0,0E0,0E0,0E0,0E0,0E0,0E0,0E0,0E0,0E0,0E0,0E0,0E0,0E0,0E0,0E0,0E0,0E0,0E0,0E0,0E0,0E0,0E0,0E0,0E0,0E0,0E0,0E0,0E0,0E0,0E0,0E0,0E0,0E0,0E0,0E0,0E0,0E0,0E0,0E0],"parents":[2147483647,0,0,1,1,2,2,3,3,4,4,5,5,6,6,7,7,8,8,9,9,10,10,11,11,12,12,13,13,14,14,16,16,19,19,20,20,21,21,22,22,23,23,24,24,25,25,26,26,28,28,29,29,30,30,31,31,32,32,33,33,34,34,35,35,36,36,37,37,38,38,39,39,40,40,41,41,42,42,43,43,44,44,45,45,46,46,47,47,48,48,49,49,50,50,51,51,52,52,53,53,54,54],"right_children":[2,4,6,8,10,12,14,16,18,20,22,24,26,28,30,-1,32,-1,-1,34,36,38,40,42,44,46,48,-1,50,52,54,56,58,60,62,64,66,68,70,72,74,76,78,80,82,84,86,88,90,92,94,96,98,100,102,-1,-1,-1,-1,-1,-1,-1,-1,-1,-1,-1,-1,-1,-1,-1,-1,-1,-1,-1,-1,-1,-1,-1,-1,-1,-1,-1,-1,-1,-1,-1,-1,-1,-1,-1,-1,-1,-1,-1,-1,-1,-1,-1,-1,-1,-1,-1,-1],"split_conditions":[8E0,6.7E1,5E0,7E0,1.6E2,2.59E2,1.1E1,1E0,5E0,8.8E1,9E0,1.61E2,3.36E2,6.5E1,1.47E2,3.029521E2,6E0,3.4467474E2,2.941805E2,7E0,7E0,2E0,3.36E2,6.7E1,1.1E1,2.73E2,1.7E1,3.1373798E2,9E0,6.5E1,2.55E2,5.3E1,5E0,1E0,5E0,1E0,5E0,1E0,5E0,7E0,7E0,4.4E1,1.44E2,9E0,2.2E1,1.1E1,2.3E1,3.57E2,2.2E1,3.35E2,1.62E2,1.8E1,9E1,1.74E2,3.35E2,2.8562857E2,2.7090903E2,3.0940784E2,2.8053156E2,2.7156073E2,2.5288983E2,3.1067395E2,2.5479408E2,2.5545021E2,2.2594472E2,2.7153772E2,2.1963123E2,3.26053E2,3.0035153E2,2.7981174E2,2.566248E2,2.376825E2,2.688847E2,2.7392877E2,3.0997522E2,3.593853E2,3.4383963E2,3.0734708E2,3.4221017E2,3.2410474E2,3.5686487E2,4.151792E2,3.7220004E2,3.0658768E2,3.378773E2,3.110336E2,2.7781638E2,3.4153537E2,3.2459912E2,3.649898E2,3.3391754E2,2.5102718E2,2.8790875E2,2.6342883E2,2.8700354E2,3.1399875E2,3.351928E2,2.8429596E2,2.6638974E2,3.2984256E2,3.7096136E2,2.8347043E2,3.1928857E2],"split_indices":[1,0,2,1,0,0,1,1,2,0,5,0,0,0,0,0,1,0,0,1,1,1,0,0,1,0,1,0,1,0,0,0,2,1,2,1,2,1,2,1,1,0,0,1,1,1,1,0,1,0,0,1,0,0,0,0,0,0,0,0,0,0,0,0,0,0,0,0,0,0,0,0,0,0,0,0,0,0,0,0,0,0,0,0,0,0,0,0,0,0,0,0,0,0,0,0,0,0,0,0,0,0,0],"split_type":[0,0,0,0,0,0,0,0,0,0,0,0,0,0,0,0,0,0,0,0,0,0,0,0,0,0,0,0,0,0,0,0,0,0,0,0,0,0,0,0,0,0,0,0,0,0,0,0,0,0,0,0,0,0,0,0,0,0,0,0,0,0,0,0,0,0,0,0,0,0,0,0,0,0,0,0,0,0,0,0,0,0,0,0,0,0,0,0,0,0,0,0,0,0,0,0,0,0,0,0,0,0,0],"sum_hessian":[1.16364E5,3.8732E4,7.7632E4,7.129E3,3.1603E4,5.5413E4,2.2219E4,6.246E3,8.83E2,1.0111E4,2.1492E4,3.9685E4,1.5728E4,4.168E3,1.8051E4,9.02E2,5.344E3,6.25E2,2.58E2,2.263E3,7.848E3,9.018E3,1.2474E4,2.4861E4,1.4824E4,1.1304E4,4.424E3,7.46E2,3.422E3,7.369E3,1.0682E4,4.469E3,8.75E2,1.996E3,2.67E2,6.849E3,9.99E2,2.242E3,6.776E3,9.37E3,3.104E3,1.0279E4,1.4582E4,2.777E3,1.2047E4,2.05E3,9.254E3,2.487E3,1.937E3,1.139E3,2.283E3,3.224E3,4.145E3,5.348E3,5.334E3,3.52E3,9.49E2,6.28E2,2.47E2,2.77E2,1.719E3,1.87E2,8E1,9.77E2,5.872E3,7.12E2,2.87E2,1.115E3,1.127E3,4.852E3,1.924E3,8.189E3,1.181E3,2.715E3,3.89E2,6.724E3,3.555E3,1.1926E4,2.656E3,9.23E2,1.854E3,1.0156E4,1.891E3,3.88E2,1.662E3,8.662E3,5.92E2,1.723E3,7.64E2,1.387E3,5.5E2,1.027E3,1.12E2,7.54E2,1.529E3,1.717E3,1.507E3,1.27E3,2.875E3,1.388E3,3.96E3,3.832E3,1.502E3],"tree_param":{"num_deleted":"0","num_feature":"7","num_nodes":"103","size_leaf_vector":"1"}},{"base_weights":[3.0798139E4,2.6052549E4,3.315833E4,2.8885129E4,2.535226E4,3.4249273E4,3.042679E4,2.8363367E4,3.2507215E4,2.3671527E4,2.614577E4,3.516858E4,3.1906428E4,2.7605732E4,3.1080818E4,2.4996048E2,2.8570855E4,3.3953E2,2.877103E2,2.5491379E4,2.3138863E4,2.8023736E4,2.479287E4,3.2692139E4,3.9331445E4,3.1024762E4,3.4145793E4,3.1078876E2,2.6833863E4,2.9227523E4,3.2429977E4,2.8892668E4,2.684979E2,2.4959777E4,2.9166615E4,2.5329062E4,2.2819514E4,3.0977734E4,2.7034371E4,2.3903424E4,2.7496314E4,3.5207445E4,3.1226459E4,3.4334996E4,4.0459074E4,3.2052096E4,3.0218213E4,3.5222363E4,3.2729441E4,2.5164814E4,2.7651553E4,3.2007969E4,2.723524E4,3.6307746E4,2.9364646E4,3.0418546E2,2.8633273E2,2.6571573E2,2.4669052E2,3.0499002E2,2.4790852E2,2.4569145E2,2.7104904E2,2.2394843E2,2.5328087E2,3.230931E2,2.9662518E2,2.7664407E2,2.5407262E2,2.350609E2,2.6645563E2,2.703393E2,3.0625632E2,3.2137332E2,3.5402078E2,3.078115E2,3.4058127E2,3.215547E2,3.5414883E2,4.112393E2,3.6801004E2,3.3592694E2,3.147889E2,3.1895834E2,2.9780655E2,3.437728E2,3.657837E2,3.20069E2,3.3898343E2,2.4666905E2,2.8137775E2,2.5918213E2,2.841028E2,3.103452E2,3.311599E2,2.6791843E2,3.032734E2,3.3596143E2,3.737272E2,2.857136E2,3.1652148E2],"categories":[],"categories_nodes":[],"categories_segments":[],"categories_sizes":[],"default_left":[0,0,0,0,0,0,0,0,0,0,0,0,0,0,0,0,0,0,0,0,0,0,0,0,0,0,0,0,0,0,0,0,0,0,0,0,0,0,0,0,0,0,0,0,0,0,0,0,0,0,0,0,0,0,0,0,0,0,0,0,0,0,0,0,0,0,0,0,0,0,0,0,0,0,0,0,0,0,0,0,0,0,0,0,0,0,0,0,0,0,0,0,0,0,0,0,0,0,0,0,0],"id":4,"left_children":[1,3,5,7,9,11,13,15,17,19,21,23,25,27,29,-1,31,-1,-1,33,35,37,39,41,43,45,47,-1,49,51,53,55,-1,57,59,61,63,65,67,69,71,73,75,77,79,81,83,85,87,89,91,93,95,97,99,-1,-1,-1,-1,-1,-1,-1,-1,-1,-1,-1,-1,-1,-1,-1,-1,-1,-1,-1,-1,-1,-1,-1,-1,-1,-1,-1,-1,-1,-1,-1,-1,-1,-1,-1,-1,-1,-1,-1,-1,-1,-1,-1,-1,-1,-1],"loss_changes":[1.2997309E12,7.5782685E10,2.3004919E11,1.3514572E10,4.064071E10,1.1821226E11,3.999059E10,3.9573258E9,4.1817866E9,9.038201E9,5.267312E10,4.0884398E11,2.9790044E10,1.0360979E10,4.397518E10,0E0,2.7079475E9,0E0,0E0,3.646554E9,4.8035267E9,2.4846533E10,2.8721545E10,9.088008E10,8.218529E10,8.329888E9,5.5626957E9,0E0,3.9769866E9,4.1112044E10,1.2241286E11,1.2210668E9,0E0,2.6424115E8,8.5886566E8,6.430392E8,6.596854E9,2.890924E9,6.0539535E9,9.398387E9,3.538944E9,4.3463475E9,1.8839765E10,5.3055324E9,2.7908899E10,3.2862372E9,3.6778803E9,1.5948841E9,5.3333197E8,9.890038E8,2.2727885E9,2.3786947E9,5.249958E9,1.1976311E10,9.633268E9,0E0,0E0,0E0,0E0,0E0,0E0,0E0,0E0,0E0,0E0,0E0,0E0,0E0,0E0,0E0,0E0,0E0,0E0,0E0,0E0,0E0,0E0,0E0,0E0,0E0,0E0,0E0,0E0,0E0,0E0,0E0,0E0,0E0,0E0,0E0,0E0,0E0,0E0,0E0,0E0,0E0,0E0,0E0,0E0,0E0,0E0],"parents":[2147483647,0,0,1,1,2,2,3,3,4,4,5,5,6,6,7,7,8,8,9,9,10,10,11,11,12,12,13,13,14,14,16,16,19,19,20,20,21,21,22,22,23,23,24,24,25,25,26,26,28,28,29,29,30,30,31,31,33,33,34,34,35,35,36,36,37,37,38,38,39,39,40,40,41,41,42,42,43,43,44,44,45,45,46,46,47,47,48,48,49,49,50,50,51,51,52,52,53,53,54,54],"right_children":[2,4,6,8,10,12,14,16,18,20,22,24,26,28,30,-1,32,-1,-1,34,36,38,40,42,44,46,48,-1,50,52,54,56,-1,58,60,62,64,66,68,70,72,74,76,78,80,82,84,86,88,90,92,94,96,98,100,-1,-1,-1,-1,-1,-1,-1,-1,-1,-1,-1,-1,-1,-1,-1,-1,-1,-1,-1,-1,-1,-1,-1,-1,-1,-1,-1,-1,-1,-1,-1,-1,-1,-1,-1,-1,-1,-1,-1,-1,-1,-1,-1,-1,-1,-1],"split_conditions":[8E0,1.1E1,5E0,7E0,2.4E1,3.8E1,1.1E1,2.003E3,5E0,4E0,9E0,2.4E1,1.2E1,1E1,6E0,2.4996048E2,3E0,3.3953E2,2.877103E2,7E0,1E0,2E0,1.2E1,3E0,1.1E1,2.009E3,2.011E3,3.1078876E2,9E0,1E1,9E0,1E0,2.684979E2,1E0,5E0,2.1E1,7E0,1E0,5E0,7E0,7E0,2.003E3,2.2E1,9E0,2.2E1,4.1E1,1E1,1.8E1,1.8E1,4.7E1,2.3E1,1.8E1,2.1E1,2.6E1,1.2E1,3.0418546E2,2.8633273E2,2.6571573E2,2.4669052E2,3.0499002E2,2.4790852E2,2.4569145E2,2.7104904E2,2.2394843E2,2.5328087E2,3.230931E2,2.9662518E2,2.7664407E2,2.5407262E2,2.350609E2,2.6645563E2,2.703393E2,3.0625632E2,3.2137332E2,3.5402078E2,3.078115E2,3.4058127E2,3.215547E2,3.5414883E2,4.112393E2,3.6801004E2,3.3592694E2,3.147889E2,3.1895834E2,2.9780655E2,3.437728E2,3.657837E2,3.20069E2,3.3898343E2,2.4666905E2,2.8137775E2,2.5918213E2,2.841028E2,3.103452E2,3.311599E2,2.6791843E2,3.032734E2,3.3596143E2,3.737272E2,2.857136E2,3.1652148E2],"split_indices":[1,3,2,1,3,3,1,6,2,5,5,3,5,3,5,0,5,0,0,1,1,1,5,5,1,6,6,0,1,3,5,1,0,1,2,3,1,1,2,1,1,6,3,1,1,3,5,1,1,3,3,1,3,3,5,0,0,0,0,0,0,0,0,0,0,0,0,0,0,0,0,0,0,0,0,0,0,0,0,0,0,0,0,0,0,0,0,0,0,0,0,0,0,0,0,0,0,0,0,0,0],"split_type":[0,0,0,0,0,0,0,0,0,0,0,0,0,0,0,0,0,0,0,0,0,0,0,0,0,0,0,0,0,0,0,0,0,0,0,0,0,0,0,0,0,0,0,0,0,0,0,0,0,0,0,0,0,0,0,0,0,0,0,0,0,0,0,0,0,0,0,0,0,0,0,0,0,0,0,0,0,0,0,0,0,0,0,0,0,0,0,0,0,0,0,0,0,0,0,0,0,0,0,0,0],"sum_hessian":[1.16119E5,3.8573E4,7.7546E4,7.638E3,3.0935E4,5.5406E4,2.214E4,6.684E3,9.54E2,9.931E3,2.1004E4,3.9782E4,1.5624E4,4.175E3,1.7965E4,3.95E2,6.289E3,6.82E2,2.72E2,2.238E3,7.693E3,8.787E3,1.2217E4,2.4949E4,1.4833E4,1.1221E4,4.403E3,7.52E2,3.423E3,7.578E3,1.0387E4,5.285E3,1.004E3,1.962E3,2.76E2,9.69E2,6.724E3,2.197E3,6.59E3,9.2E3,3.017E3,9.177E3,1.5772E4,2.737E3,1.2096E4,4.918E3,6.303E3,2.488E3,1.915E3,1.136E3,2.287E3,3.157E3,4.421E3,4.581E3,5.806E3,7.51E2,4.534E3,2.86E2,1.676E3,2.07E2,6.9E1,6.89E2,2.8E2,5.759E3,9.65E2,1.08E3,1.117E3,4.739E3,1.851E3,8.044E3,1.156E3,2.637E3,3.8E2,5.57E2,8.62E3,1.3639E4,2.133E3,9.17E2,1.82E3,1.0227E4,1.869E3,1.318E3,3.6E3,1.289E3,5.014E3,1.549E3,9.39E2,1.201E3,7.14E2,9.81E2,1.55E2,7.07E2,1.58E3,1.696E3,1.461E3,3.875E3,5.46E2,1.301E3,3.28E3,4.321E3,1.485E3],"tree_param":{"num_deleted":"0","num_feature":"7","num_nodes":"101","size_leaf_vector":"1"}},{"base_weights":[3.0500584E4,2.5814506E4,3.283846E4,2.8744137E4,2.518063E4,3.37019E4,3.0628854E4,2.822721E4,3.235139E2,2.3687918E4,2.5921139E4,3.1364748E4,3.7637082E4,2.9698879E4,3.2993258E4,2.479021E2,2.8435953E4,2.5658674E4,2.2907666E4,2.7777254E4,2.4586402E4,3.3993695E4,2.9865717E4,3.238521E4,3.8841594E4,3.141139E4,2.9273838E4,3.2111629E4,3.445583E4,2.9951584E2,2.817244E4,2.5140926E4,2.914998E2,2.5155367E4,2.2570752E4,3.0671771E4,2.6807092E4,2.3699164E4,2.726493E4,3.0865295E2,3.4187555E4,2.9381014E4,3.2910406E4,3.0253008E4,3.343472E4,3.9552277E4,3.4857645E4,2.8588156E2,3.2060086E4,3.0218121E4,2.852801E4,3.303182E2,3.0886422E4,3.5081016E4,3.1173813E2,2.7870514E2,2.9627695E2,2.6330658E2,2.4743063E2,2.451738E2,2.7520926E2,2.214549E2,2.5060896E2,3.197652E2,2.9343024E2,2.5335048E2,2.731467E2,2.3296443E2,2.6395065E2,2.6828296E2,3.0203308E2,3.4588373E2,3.2394632E2,3.0838937E2,2.8791327E2,2.9091177E2,3.3768744E2,3.0644696E2,2.7934058E2,3.394385E2,3.0443497E2,4.0123877E2,3.638129E2,3.5262936E2,2.9350537E2,3.2936258E2,3.0596814E2,3.0385617E2,2.7636197E2,2.7875912E2,2.9384738E2,2.7983926E2,3.1091336E2,3.6247964E2,3.3588922E2],"categories":[],"categories_nodes":[],"categories_segments":[],"categories_sizes":[],"default_left":[0,0,0,0,0,0,0,0,0,0,0,0,0,0,0,0,0,0,0,0,0,0,0,0,0,0,0,0,0,0,0,0,0,0,0,0,0,0,0,0,0,0,0,0,0,0,0,0,0,0,0,0,0,0,0,0,0,0,0,0,0,0,0,0,0,0,0,0,0,0,0,0,0,0,0,0,0,0,0,0,0,0,0,0,0,0,0,0,0,0,0,0,0,0,0],"id":5,"left_children":[1,3,5,7,9,11,13,15,-1,17,19,21,23,25,27,-1,29,31,33,35,37,39,41,43,45,47,49,51,53,-1,55,57,-1,59,61,63,65,67,69,-1,71,73,75,77,79,81,83,-1,85,87,89,-1,91,93,-1,-1,-1,-1,-1,-1,-1,-1,-1,-1,-1,-1,-1,-1,-1,-1,-1,-1,-1,-1,-1,-1,-1,-1,-1,-1,-1,-1,-1,-1,-1,-1,-1,-1,-1,-1,-1,-1,-1,-1,-1],"loss_changes":[1.2741205E12,7.121928E10,1.4708585E11,1.1923358E10,3.4598814E10,5.121413E11,4.7011856E10,3.620733E9,0E0,1.5673065E10,5.2043973E10,1.3700484E11,1.30272985E11,1.0488906E10,6.82623E9,0E0,1.4234419E9,4.6737654E9,5.1762954E9,2.4156045E10,2.8795994E10,6.6532147E9,3.1962694E10,7.682392E9,4.649386E10,4.766302E9,7.9922463E9,3.3237238E9,3.6259758E9,0E0,1.3065257E9,5.8497434E8,0E0,8.042578E8,6.440354E9,2.9209395E9,4.2918216E9,9.497477E9,3.1360287E9,0E0,7.4742497E9,1.5667823E10,9.035842E9,3.174564E8,2.9171384E9,2.4532484E10,4.696572E9,0E0,2.2166897E9,1.5524168E9,3.114795E9,0E0,1.221591E8,2.1322793E9,0E0,0E0,0E0,0E0,0E0,0E0,0E0,0E0,0E0,0E0,0E0,0E0,0E0,0E0,0E0,0E0,0E0,0E0,0E0,0E0,0E0,0E0,0E0,0E0,0E0,0E0,0E0,0E0,0E0,0E0,0E0,0E0,0E0,0E0,0E0,0E0,0E0,0E0,0E0,0E0,0E0],"parents":[2147483647,0,0,1,1,2,2,3,3,4,4,5,5,6,6,7,7,9,9,10,10,11,11,12,12,13,13,14,14,16,16,17,17,18,18,19,19,20,20,21,21,22,22,23,23,24,24,25,25,26,26,27,27,28,28,30,30,31,31,33,33,34,34,35,35,36,36,37,37,38,38,40,40,41,41,42,42,43,43,44,44,45,45,46,46,48,48,49,49,50,50,52,52,53,53],"right_children":[2,4,6,8,10,12,14,16,-1,18,20,22,24,26,28,-1,30,32,34,36,38,40,42,44,46,48,50,52,54,-1,56,58,-1,60,62,64,66,68,70,-1,72,74,76,78,80,82,84,-1,86,88,90,-1,92,94,-1,-1,-1,-1,-1,-1,-1,-1,-1,-1,-1,-1,-1,-1,-1,-1,-1,-1,-1,-1,-1,-1,-1,-1,-1,-1,-1,-1,-1,-1,-1,-1,-1,-1,-1,-1,-1,-1,-1,-1,-1],"split_conditions":[8E0,1E1,3.8E1,7E0,2.4E1,2.4E1,1.2E1,2.003E3,3.235139E2,2E0,9E0,3E0,1.1E1,4E0,1.8E1,2.479021E2,1E0,7E0,1E0,2E0,1.2E1,2.003E3,2.2E1,9E0,9E0,1.1E1,2.009E3,2.011E3,2.3E1,2.9951584E2,6E0,1.1E1,2.914998E2,2.2E1,7E0,1E0,3E0,7E0,7E0,3.0865295E2,2.016E3,1.3E1,1.1E1,9E0,9E0,2.2E1,2.017E3,2.8588156E2,2.012E3,2.3E1,4.5E1,3.303182E2,4.9E1,2.011E3,3.1173813E2,2.7870514E2,2.9627695E2,2.6330658E2,2.4743063E2,2.451738E2,2.7520926E2,2.214549E2,2.5060896E2,3.197652E2,2.9343024E2,2.5335048E2,2.731467E2,2.3296443E2,2.6395065E2,2.6828296E2,3.0203308E2,3.4588373E2,3.2394632E2,3.0838937E2,2.8791327E2,2.9091177E2,3.3768744E2,3.0644696E2,2.7934058E2,3.394385E2,3.0443497E2,4.0123877E2,3.638129E2,3.5262936E2,2.9350537E2,3.2936258E2,3.0596814E2,3.0385617E2,2.7636197E2,2.7875912E2,2.9384738E2,2.7983926E2,3.1091336E2,3.6247964E2,3.3588922E2],"split_indices":[1,3,3,1,3,3,5,6,0,4,5,5,1,4,1,0,1,1,1,1,5,6,3,1,5,1,6,6,1,0,1,3,0,3,1,1,4,1,1,0,6,3,1,5,5,1,6,0,6,1,3,0,3,6,0,0,0,0,0,0,0,0,0,0,0,0,0,0,0,0,0,0,0,0,0,0,0,0,0,0,0,0,0,0,0,0,0,0,0,0,0,0,0,0,0],"split_type":[0,0,0,0,0,0,0,0,0,0,0,0,0,0,0,0,0,0,0,0,0,0,0,0,0,0,0,0,0,0,0,0,0,0,0,0,0,0,0,0,0,0,0,0,0,0,0,0,0,0,0,0,0,0,0,0,0,0,0,0,0,0,0,0,0,0,0,0,0,0,0,0,0,0,0,0,0,0,0,0,0,0,0,0,0,0,0,0,0,0,0,0,0,0,0],"sum_hessian":[1.16376E5,3.8739E4,7.7637E4,6.883E3,3.1856E4,5.5813E4,2.1824E4,6.028E3,8.55E2,1.0574E4,2.1282E4,3.5022E4,2.0791E4,1.5673E4,6.151E3,3.52E2,5.676E3,2.99E3,7.584E3,8.894E3,1.2388E4,1.271E4,2.2312E4,3.884E3,1.6907E4,3.102E3,1.2571E4,3.852E3,2.299E3,8.24E2,4.852E3,2.611E3,3.79E2,9.79E2,6.605E3,2.225E3,6.669E3,9.313E3,3.075E3,7.51E2,1.1959E4,1.9257E4,3.055E3,1.291E3,2.593E3,1.434E4,2.567E3,5.88E2,2.514E3,5.53E3,7.041E3,2.185E3,1.667E3,1.923E3,3.76E2,4.035E3,8.17E2,6.38E2,1.973E3,7.8E2,1.99E2,5.65E3,9.55E2,1.111E3,1.114E3,1.723E3,4.946E3,8.111E3,1.202E3,2.686E3,3.89E2,9.759E3,2.2E3,5.531E3,1.3726E4,5.67E2,2.488E3,1.094E3,1.97E2,2.207E3,3.86E2,1.214E4,2.2E3,2.386E3,1.81E2,1.559E3,9.55E2,5.183E3,3.47E2,4.017E3,3.024E3,1.19E2,1.548E3,1.066E3,8.57E2],"tree_param":{"num_deleted":"0","num_feature":"7","num_nodes":"95","size_leaf_vector":"1"}},{"base_weights":[3.0172545E4,3.1038238E4,2.8005014E4,3.1818672E4,2.9066354E4,2.8664355E4,2.642442E4,3.0088607E4,3.5148473E4,2.8094943E4,3.150133E4,2.7268223E4,3.1779135E4,2.5389826E4,2.9106086E4,3.25194E4,2.8520295E4,3.6073906E4,3.2635828E4,2.8948986E4,2.7433219E4,3.2408848E4,3.0319975E4,2.9973408E4,2.5686621E4,3.2522158E4,2.9582445E4,2.6918512E4,2.5028826E4,2.9714102E4,2.8317346E4,2.9597076E2,3.2704691E4,2.7864682E4,3.1402332E4,3.67838E4,3.4712633E4,3.2908105E4,2.8782121E4,3.0368158E2,2.866866E4,2.8530498E4,2.7165621E4,3.303933E4,3.0725918E4,2.8792975E2,3.0690744E4,2.6177322E2,3.0209125E4,2.4747385E4,2.8413164E4,3.2959715E4,3.1353967E4,2.9988938E4,2.3161385E2,2.824591E2,2.5937361E4,2.4388926E4,2.646619E2,3.0252914E2,2.8285434E2,2.8004756E4,3.1171588E4,3.3066092E2,3.111236E2,2.9280295E2,2.7390018E2,3.230687E2,3.0073572E2,3.4980243E2,3.7465527E2,3.321339E2,3.511419E2,3.371383E2,3.1683237E2,3.6102206E2,2.7760156E2,2.7955322E2,2.9201074E2,2.8169705E2,3.1440756E2,2.6548795E2,2.8059952E2,3.1463147E2,3.3303403E2,2.9778894E2,3.2373114E2,3.0155737E2,3.2038657E2,3.0687646E2,2.8788916E2,2.6393784E2,2.4024004E2,2.594753E2,2.8914822E2,3.14438E2,3.3435782E2,2.9587146E2,3.210551E2,2.7619608E2,3.033247E2,2.5183363E2,2.8332462E2,2.4941371E2,2.345234E2,2.8340485E2,2.5385533E2,2.8126233E2,3.57978E2],"categories":[],"categories_nodes":[],"categories_segments":[],"categories_sizes":[],"default_left":[0,0,0,0,0,0,0,0,0,0,0,0,0,0,0,0,0,0,0,0,0,0,0,0,0,0,0,0,0,0,0,0,0,0,0,0,0,0,0,0,0,0,0,0,0,0,0,0,0,0,0,0,0,0,0,0,0,0,0,0,0,0,0,0,0,0,0,0,0,0,0,0,0,0,0,0,0,0,0,0,0,0,0,0,0,0,0,0,0,0,0,0,0,0,0,0,0,0,0,0,0,0,0,0,0,0,0,0,0],"id":6,"left_children":[1,3,5,7,9,11,13,15,17,19,21,23,25,27,29,31,33,35,37,39,41,43,45,47,49,51,53,55,57,59,61,-1,63,65,67,69,71,73,75,-1,77,79,81,83,85,-1,87,-1,89,91,93,95,97,99,-1,-1,101,103,-1,-1,-1,105,107,-1,-1,-1,-1,-1,-1,-1,-1,-1,-1,-1,-1,-1,-1,-1,-1,-1,-1,-1,-1,-1,-1,-1,-1,-1,-1,-1,-1,-1,-1,-1,-1,-1,-1,-1,-1,-1,-1,-1,-1,-1,-1,-1,-1,-1,-1],"loss_changes":[2.1730689E11,1.2691964E11,3.3837548E10,3.4177286E11,5.4863593E10,1.0094222E11,2.6405765E10,1.4839867E11,4.612686E10,8.732541E9,6.2143857E9,6.8426924E10,1.0854859E10,3.2264684E9,4.616356E8,7.3463235E9,4.4128272E10,1.3079937E10,4.809294E9,2.0504904E9,2.0195574E9,2.9976166E9,7.762084E8,4.5429555E9,2.5451037E10,1.7270047E9,4.11068E9,1.00859904E9,4.6265795E9,3.0972314E8,2.013266E8,0E0,7.272923E9,1.2240028E10,4.3240653E9,1.0674504E10,1.9105055E9,3.9819674E9,1.7657037E9,0E0,1.518338E9,1.05250816E9,3.4865152E9,9.201254E7,6.660424E8,0E0,7.243039E8,0E0,2.9265756E9,8.4221624E9,2.4780472E9,1.769472E9,1.0312745E9,5.688525E8,0E0,0E0,6.969098E8,1.4737736E9,0E0,0E0,0E0,2.434007E8,5.4287565E8,0E0,0E0,0E0,0E0,0E0,0E0,0E0,0E0,0E0,0E0,0E0,0E0,0E0,0E0,0E0,0E0,0E0,0E0,0E0,0E0,0E0,0E0,0E0,0E0,0E0,0E0,0E0,0E0,0E0,0E0,0E0,0E0,0E0,0E0,0E0,0E0,0E0,0E0,0E0,0E0,0E0,0E0,0E0,0E0,0E0,0E0],"parents":[2147483647,0,0,1,1,2,2,3,3,4,4,5,5,6,6,7,7,8,8,9,9,10,10,11,11,12,12,13,13,14,14,15,15,16,16,17,17,18,18,19,19,20,20,21,21,22,22,23,23,24,24,25,25,26,26,27,27,28,28,29,29,30,30,32,32,33,33,34,34,35,35,36,36,37,37,38,38,40,40,41,41,42,42,43,43,44,44,46,46,48,48,49,49,50,50,51,51,52,52,53,53,56,56,57,57,61,61,62,62],"right_children":[2,4,6,8,10,12,14,16,18,20,22,24,26,28,30,32,34,36,38,40,42,44,46,48,50,52,54,56,58,60,62,-1,64,66,68,70,72,74,76,-1,78,80,82,84,86,-1,88,-1,90,92,94,96,98,100,-1,-1,102,104,-1,-1,-1,106,108,-1,-1,-1,-1,-1,-1,-1,-1,-1,-1,-1,-1,-1,-1,-1,-1,-1,-1,-1,-1,-1,-1,-1,-1,-1,-1,-1,-1,-1,-1,-1,-1,-1,-1,-1,-1,-1,-1,-1,-1,-1,-1,-1,-1,-1,-1],"split_conditions":[5E0,2.59E2,2.55E2,1.69E2,3.36E2,1.75E2,3.35E2,6.7E1,2.34E2,2.009E3,2.011E3,6.5E1,2.34E2,2.7E2,2.011E3,2.003E3,1.5E2,2.013E3,2.017E3,2.71E2,2.74E2,3.58E2,3.42E2,2.003E3,1.47E2,2.014E3,2.017E3,2.009E3,3.15E2,3.57E2,3.64E2,2.9597076E2,2.016E3,8.8E1,2.012E3,1.87E2,3E0,2.49E2,2.36E2,3.0368158E2,2.005E3,2.017E3,3.11E2,3.39E2,2.008E3,2.8792975E2,2.016E3,2.6177322E2,4.9E1,9E1,2.005E3,2.005E3,1.92E2,2.004E3,2.3161385E2,2.824591E2,2.016E3,2.012E3,2.646619E2,3.0252914E2,2.8285434E2,3.6E2,2.017E3,3.3066092E2,3.111236E2,2.9280295E2,2.7390018E2,3.230687E2,3.0073572E2,3.4980243E2,3.7465527E2,3.321339E2,3.511419E2,3.371383E2,3.1683237E2,3.6102206E2,2.7760156E2,2.7955322E2,2.9201074E2,2.8169705E2,3.1440756E2,2.6548795E2,2.8059952E2,3.1463147E2,3.3303403E2,2.9778894E2,3.2373114E2,3.0155737E2,3.2038657E2,3.0687646E2,2.8788916E2,2.6393784E2,2.4024004E2,2.594753E2,2.8914822E2,3.14438E2,3.3435782E2,2.9587146E2,3.210551E2,2.7619608E2,3.033247E2,2.5183363E2,2.8332462E2,2.4941371E2,2.345234E2,2.8340485E2,2.5385533E2,2.8126233E2,3.57978E2],"split_indices":[2,0,0,0,0,0,0,0,0,6,6,0,0,0,6,6,0,6,6,0,0,0,0,6,0,6,6,6,0,0,0,0,6,0,6,0,4,0,0,0,6,6,0,0,6,0,6,0,0,0,6,6,0,6,0,0,6,6,0,0,0,0,6,0,0,0,0,0,0,0,0,0,0,0,0,0,0,0,0,0,0,0,0,0,0,0,0,0,0,0,0,0,0,0,0,0,0,0,0,0,0,0,0,0,0,0,0,0,0],"split_type":[0,0,0,0,0,0,0,0,0,0,0,0,0,0,0,0,0,0,0,0,0,0,0,0,0,0,0,0,0,0,0,0,0,0,0,0,0,0,0,0,0,0,0,0,0,0,0,0,0,0,0,0,0,0,0,0,0,0,0,0,0,0,0,0,0,0,0,0,0,0,0,0,0,0,0,0,0,0,0,0,0,0,0,0,0,0,0,0,0,0,0,0,0,0,0,0,0,0,0,0,0,0,0,0,0,0,0,0,0],"sum_hessian":[1.16272E5,8.3078E4,3.3194E4,5.951E4,2.3568E4,2.3411E4,9.783E3,3.9169E4,2.0341E4,1.6856E4,6.712E3,1.6172E4,7.239E3,7.067E3,2.716E3,1.5353E4,2.3816E4,1.4856E4,5.485E3,7.34E3,9.516E3,3.781E3,2.931E3,5.96E3,1.0212E4,5.399E3,1.84E3,1.336E3,5.731E3,1.513E3,1.203E3,9.25E2,1.4428E4,1.9411E4,4.405E3,9.747E3,5.109E3,5.116E3,3.69E2,1.193E3,6.147E3,1.845E3,7.671E3,2.737E3,1.044E3,5.88E2,2.343E3,3.55E2,5.605E3,7.603E3,2.609E3,3.908E3,1.491E3,1.727E3,1.13E2,5.56E2,7.8E2,3.978E3,1.753E3,1.084E3,4.29E2,1.094E3,1.09E2,1.1743E4,2.685E3,4.859E3,1.4552E4,2.607E3,1.798E3,2.688E3,7.059E3,1.097E3,4.012E3,3.07E3,2.046E3,4.1E1,3.28E2,2.65E3,3.497E3,1.651E3,1.94E2,4.558E3,3.113E3,4.1E2,2.327E3,6.75E2,3.69E2,1.694E3,6.49E2,4.177E3,1.428E3,2.31E3,5.293E3,4.5E2,2.159E3,9.5E2,2.958E3,4.57E2,1.034E3,2.29E2,1.498E3,6.02E2,1.78E2,2.486E3,1.492E3,9.61E2,1.33E2,7E1,3.9E1],"tree_param":{"num_deleted":"0","num_feature":"7","num_nodes":"109","size_leaf_vector":"1"}},{"base_weights":[2.9888445E4,2.5243023E4,3.2203828E4,2.7998781E4,2.4564121E4,3.327818E4,2.9523953E4,2.74997E4,3.1430625E4,2.2934752E4,2.5321018E4,3.4145125E4,3.0856605E4,2.6777547E4,3.0157215E4,2.4126733E2,2.770222E4,3.2880286E2,2.7740344E2,2.4765043E4,2.2407012E4,2.7145203E4,2.401851E4,3.1762012E4,3.7890137E4,2.9876049E4,3.316999E4,3.009457E2,2.6042943E4,2.8354803E4,3.148731E4,2.8029781E4,2.5952872E2,2.4239781E4,2.8289104E4,2.2086928E4,2.4554654E4,3.0061572E4,2.6171477E4,2.3157434E4,2.666571E4,3.38774E4,3.0136852E4,3.3129832E4,3.8997742E4,3.085626E4,2.9104516E4,3.422786E4,3.1752504E4,2.442374E4,2.6814602E4,3.1021453E4,2.6428842E4,3.5251918E4,2.8502428E4,2.9520135E2,2.7769635E2,2.5803006E2,2.3967064E2,2.9632718E2,2.3684169E2,2.3709523E2,2.1427316E2,2.601335E2,2.1003656E2,3.1282663E2,2.878367E2,2.6780594E2,2.4605269E2,2.2771173E2,2.579994E2,2.622946E2,2.9638965E2,3.4260275E2,3.2056808E2,2.9598068E2,3.309806E2,3.11315E2,3.4134955E2,4.0004773E2,3.4890393E2,3.107609E2,2.7539517E2,2.929433E2,2.6092697E2,3.3407504E2,3.5569296E2,3.0926242E2,3.2787686E2,2.3937904E2,2.7156873E2,2.5135298E2,2.7522586E2,3.0070886E2,3.2106677E2,2.6019083E2,2.9278244E2,3.263991E2,3.631174E2,2.7745477E2,3.0659528E2],"categories":[],"categories_nodes":[],"categories_segments":[],"categories_sizes":[],"default_left":[0,0,0,0,0,0,0,0,0,0,0,0,0,0,0,0,0,0,0,0,0,0,0,0,0,0,0,0,0,0,0,0,0,0,0,0,0,0,0,0,0,0,0,0,0,0,0,0,0,0,0,0,0,0,0,0,0,0,0,0,0,0,0,0,0,0,0,0,0,0,0,0,0,0,0,0,0,0,0,0,0,0,0,0,0,0,0,0,0,0,0,0,0,0,0,0,0,0,0,0,0],"id":7,"left_children":[1,3,5,7,9,11,13,15,17,19,21,23,25,27,29,-1,31,-1,-1,33,35,37,39,41,43,45,47,-1,49,51,53,55,-1,57,59,61,63,65,67,69,71,73,75,77,79,81,83,85,87,89,91,93,95,97,99,-1,-1,-1,-1,-1,-1,-1,-1,-1,-1,-1,-1,-1,-1,-1,-1,-1,-1,-1,-1,-1,-1,-1,-1,-1,-1,-1,-1,-1,-1,-1,-1,-1,-1,-1,-1,-1,-1,-1,-1,-1,-1,-1,-1,-1,-1],"loss_changes":[1.2500452E12,7.169324E10,2.2246588E11,1.2221678E10,3.7710987E10,1.1523431E11,3.7832622E10,3.8933627E9,4.2395894E9,8.968471E9,4.969726E10,3.627402E11,3.215668E10,9.381872E9,4.2372956E10,0E0,2.8788654E9,0E0,0E0,3.3810022E9,4.7251456E9,2.4259854E10,2.7584365E10,8.467251E10,8.229434E10,6.8713185E9,5.4221865E9,0E0,3.6220436E9,3.858812E10,1.1557929E11,1.230504E9,0E0,1.9975373E8,1.0244096E9,6.640632E9,4.555735E9,2.534146E9,5.656543E9,8.948548E9,3.152806E9,6.4455967E9,2.1526217E10,4.961075E9,5.177449E10,2.4308613E9,2.5317868E9,1.5332803E9,5.847122E8,8.3184845E8,2.0523254E9,2.3477617E9,4.447797E9,1.1504976E10,8.606712E9,0E0,0E0,0E0,0E0,0E0,0E0,0E0,0E0,0E0,0E0,0E0,0E0,0E0,0E0,0E0,0E0,0E0,0E0,0E0,0E0,0E0,0E0,0E0,0E0,0E0,0E0,0E0,0E0,0E0,0E0,0E0,0E0,0E0,0E0,0E0,0E0,0E0,0E0,0E0,0E0,0E0,0E0,0E0,0E0,0E0,0E0],"parents":[2147483647,0,0,1,1,2,2,3,3,4,4,5,5,6,6,7,7,8,8,9,9,10,10,11,11,12,12,13,13,14,14,16,16,19,19,20,20,21,21,22,22,23,23,24,24,25,25,26,26,28,28,29,29,30,30,31,31,33,33,34,34,35,35,36,36,37,37,38,38,39,39,40,40,41,41,42,42,43,43,44,44,45,45,46,46,47,47,48,48,49,49,50,50,51,51,52,52,53,53,54,54],"right_children":[2,4,6,8,10,12,14,16,18,20,22,24,26,28,30,-1,32,-1,-1,34,36,38,40,42,44,46,48,-1,50,52,54,56,-1,58,60,62,64,66,68,70,72,74,76,78,80,82,84,86,88,90,92,94,96,98,100,-1,-1,-1,-1,-1,-1,-1,-1,-1,-1,-1,-1,-1,-1,-1,-1,-1,-1,-1,-1,-1,-1,-1,-1,-1,-1,-1,-1,-1,-1,-1,-1,-1,-1,-1,-1,-1,-1,-1,-1,-1,-1,-1,-1,-1,-1],"split_conditions":[8E0,1.1E1,5E0,7E0,2.4E1,3.9E1,1.1E1,2.003E3,5E0,4E0,9E0,2.4E1,1.2E1,1E1,6E0,2.4126733E2,3E0,3.2880286E2,2.7740344E2,7E0,7E0,2E0,1.2E1,1.1E1,1.1E1,2.009E3,2.011E3,3.009457E2,9E0,1E1,9E0,1E0,2.5952872E2,1E0,5E0,2E0,5E0,1E0,5E0,7E0,7E0,2.016E3,2.2E1,9E0,9E0,2.3E1,2.3E1,1.8E1,1.7E1,4.7E1,6E0,1.8E1,2.1E1,2.6E1,1.2E1,2.9520135E2,2.7769635E2,2.5803006E2,2.3967064E2,2.9632718E2,2.3684169E2,2.3709523E2,2.1427316E2,2.601335E2,2.1003656E2,3.1282663E2,2.878367E2,2.6780594E2,2.4605269E2,2.2771173E2,2.579994E2,2.622946E2,2.9638965E2,3.4260275E2,3.2056808E2,2.9598068E2,3.309806E2,3.11315E2,3.4134955E2,4.0004773E2,3.4890393E2,3.107609E2,2.7539517E2,2.929433E2,2.6092697E2,3.3407504E2,3.5569296E2,3.0926242E2,3.2787686E2,2.3937904E2,2.7156873E2,2.5135298E2,2.7522586E2,3.0070886E2,3.2106677E2,2.6019083E2,2.9278244E2,3.263991E2,3.631174E2,2.7745477E2,3.0659528E2],"split_indices":[1,3,2,1,3,3,1,6,2,5,5,3,5,3,5,0,5,0,0,1,1,1,5,3,1,6,6,0,1,3,5,1,0,1,2,1,2,1,2,1,1,6,3,1,5,1,1,1,1,3,5,1,3,3,5,0,0,0,0,0,0,0,0,0,0,0,0,0,0,0,0,0,0,0,0,0,0,0,0,0,0,0,0,0,0,0,0,0,0,0,0,0,0,0,0,0,0,0,0,0,0],"split_type":[0,0,0,0,0,0,0,0,0,0,0,0,0,0,0,0,0,0,0,0,0,0,0,0,0,0,0,0,0,0,0,0,0,0,0,0,0,0,0,0,0,0,0,0,0,0,0,0,0,0,0,0,0,0,0,0,0,0,0,0,0,0,0,0,0,0,0,0,0,0,0,0,0,0,0,0,0,0,0,0,0,0,0,0,0,0,0,0,0,0,0,0,0,0,0,0,0,0,0,0,0],"sum_hessian":[1.16294E5,3.8687E4,7.7607E4,7.639E3,3.1048E4,5.539E4,2.2217E4,6.677E3,9.62E2,9.858E3,2.119E4,4.0778E4,1.4612E4,4.171E3,1.8046E4,3.85E2,6.292E3,6.85E2,2.77E2,2.196E3,7.662E3,8.819E3,1.2371E4,2.4926E4,1.5852E4,1.0272E4,4.34E3,7.49E2,3.422E3,7.672E3,1.0374E4,5.287E3,1.005E3,1.918E3,2.78E2,6.678E3,9.84E2,2.2E3,6.619E3,9.342E3,3.029E3,1.0821E4,1.4105E4,2.998E3,1.2854E4,4.507E3,5.765E3,2.472E3,1.868E3,1.115E3,2.307E3,3.211E3,4.461E3,4.583E3,5.791E3,7.69E2,4.518E3,2.71E2,1.647E3,2.11E2,6.7E1,1.92E3,4.758E3,6.93E2,2.91E2,1.113E3,1.087E3,4.754E3,1.865E3,8.159E3,1.183E3,2.65E3,3.79E2,8.926E3,1.895E3,1.1943E4,2.162E3,1.014E3,1.984E3,1.0316E4,2.538E3,4.219E3,2.88E2,5.415E3,3.5E2,1.55E3,9.22E2,1.056E3,8.12E2,9.55E2,1.6E2,6.95E2,1.612E3,1.727E3,1.484E3,3.909E3,5.52E2,1.332E3,3.251E3,4.297E3,1.494E3],"tree_param":{"num_deleted":"0","num_feature":"7","num_nodes":"101","size_leaf_vector":"1"}},{"base_weights":[2.9584615E4,2.499028E4,3.1885137E4,2.789839E4,2.4328781E4,3.2950934E4,2.9213875E4,2.7389578E4,3.1442549E4,2.272757E4,2.5083305E4,3.3786152E4,3.057551E4,2.647908E4,2.9844574E4,2.8856207E2,2.7138012E4,3.2809338E2,2.7978232E2,2.4708115E4,2.2151324E4,2.6823275E4,2.3775324E4,3.1453182E4,3.746914E4,2.9580748E4,3.2942805E4,2.9849872E2,2.57306E4,2.8013486E4,3.1118857E4,2.681139E4,2.8753135E4,2.4232293E4,2.8110455E4,2.1827146E4,2.44082E4,2.9679959E4,2.5842584E4,2.288965E4,2.6563504E4,3.3718992E4,2.987568E4,3.2736363E4,3.85534E4,2.9775174E4,2.6567264E2,3.2192373E4,3.4164695E4,2.405386E4,2.655323E4,3.0782406E4,2.584227E4,3.43308E4,2.7869266E4,2.7098157E2,2.5741635E2,2.95571E2,2.6651666E2,2.577945E2,2.3950146E2,2.956092E2,2.4105305E2,2.3378271E2,2.1195221E2,2.586029E2,2.0799251E2,3.0890793E2,2.8448004E2,2.6455936E2,2.4249425E2,2.251424E2,2.5480373E2,2.6118842E2,2.9549573E2,3.427044E2,3.2689267E2,2.9291333E2,3.269667E2,3.0774875E2,3.3705E2,3.950104E2,3.4292947E2,2.9352643E2,3.0615506E2,3.260271E2,3.0790698E2,3.5294077E2,3.1882443E2,2.3600774E2,2.6881583E2,2.5026158E2,2.7298758E2,2.9832083E2,3.187115E2,2.7049472E2,2.5315146E2,3.1452536E2,3.5337143E2,2.6918637E2,3.0317703E2],"categories":[],"categories_nodes":[],"categories_segments":[],"categories_sizes":[],"default_left":[0,0,0,0,0,0,0,0,0,0,0,0,0,0,0,0,0,0,0,0,0,0,0,0,0,0,0,0,0,0,0,0,0,0,0,0,0,0,0,0,0,0,0,0,0,0,0,0,0,0,0,0,0,0,0,0,0,0,0,0,0,0,0,0,0,0,0,0,0,0,0,0,0,0,0,0,0,0,0,0,0,0,0,0,0,0,0,0,0,0,0,0,0,0,0,0,0,0,0,0,0],"id":8,"left_children":[1,3,5,7,9,11,13,15,17,19,21,23,25,27,29,-1,31,-1,-1,33,35,37,39,41,43,45,47,-1,49,51,53,55,57,59,61,63,65,67,69,71,73,75,77,79,81,83,-1,85,87,89,91,93,95,97,99,-1,-1,-1,-1,-1,-1,-1,-1,-1,-1,-1,-1,-1,-1,-1,-1,-1,-1,-1,-1,-1,-1,-1,-1,-1,-1,-1,-1,-1,-1,-1,-1,-1,-1,-1,-1,-1,-1,-1,-1,-1,-1,-1,-1,-1,-1],"loss_changes":[1.2280754E12,7.3956065E10,2.1959698E11,1.2092178E10,3.76271E10,1.0881283E11,3.73335E10,1.5372124E9,3.3198572E9,1.1021582E10,4.824708E10,3.507235E11,3.2969327E10,9.705095E9,4.1018196E10,0E0,2.0701512E9,0E0,0E0,3.003515E9,5.219287E9,2.5034752E10,2.96941E10,8.8631935E10,8.020977E10,5.161091E9,2.8023194E9,0E0,4.0564163E9,4.3554177E10,1.09441974E11,6.80788E8,7.192576E8,2.5716326E8,8.733655E8,6.251872E9,4.592632E9,2.6222264E9,6.065488E9,8.490844E9,3.147694E9,4.720689E9,2.3428334E10,4.5977436E9,5.0776244E10,2.4861737E9,0E0,5.2297728E8,3.0063985E9,8.146125E8,1.9056558E9,2.3986176E9,1.9503514E9,1.4283178E10,1.1434197E10,0E0,0E0,0E0,0E0,0E0,0E0,0E0,0E0,0E0,0E0,0E0,0E0,0E0,0E0,0E0,0E0,0E0,0E0,0E0,0E0,0E0,0E0,0E0,0E0,0E0,0E0,0E0,0E0,0E0,0E0,0E0,0E0,0E0,0E0,0E0,0E0,0E0,0E0,0E0,0E0,0E0,0E0,0E0,0E0,0E0,0E0],"parents":[2147483647,0,0,1,1,2,2,3,3,4,4,5,5,6,6,7,7,8,8,9,9,10,10,11,11,12,12,13,13,14,14,16,16,19,19,20,20,21,21,22,22,23,23,24,24,25,25,26,26,28,28,29,29,30,30,31,31,32,32,33,33,34,34,35,35,36,36,37,37,38,38,39,39,40,40,41,41,42,42,43,43,44,44,45,45,47,47,48,48,49,49,50,50,51,51,52,52,53,53,54,54],"right_children":[2,4,6,8,10,12,14,16,18,20,22,24,26,28,30,-1,32,-1,-1,34,36,38,40,42,44,46,48,-1,50,52,54,56,58,60,62,64,66,68,70,72,74,76,78,80,82,84,-1,86,88,90,92,94,96,98,100,-1,-1,-1,-1,-1,-1,-1,-1,-1,-1,-1,-1,-1,-1,-1,-1,-1,-1,-1,-1,-1,-1,-1,-1,-1,-1,-1,-1,-1,-1,-1,-1,-1,-1,-1,-1,-1,-1,-1,-1,-1,-1,-1,-1,-1,-1],"split_conditions":[8E0,6.7E1,5E0,7E0,1.6E2,3.9E1,1.1E1,1E0,5E0,8.8E1,2.46E2,2.4E1,3.36E2,1E1,1.47E2,2.8856207E2,6E0,3.2809338E2,2.7978232E2,7E0,7E0,2E0,3.37E2,6.7E1,1.1E1,2.3E1,1.8E1,2.9849872E2,9E0,6.5E1,2.55E2,5.3E1,5E0,1E0,5E0,2E0,5E0,1E0,5E0,7E0,7E0,4.4E1,1.46E2,9E0,2.46E2,1.8E1,2.6567264E2,3.58E2,2.2E1,4.7E1,1.62E2,1.8E1,9E1,1.75E2,3.35E2,2.7098157E2,2.5741635E2,2.95571E2,2.6651666E2,2.577945E2,2.3950146E2,2.956092E2,2.4105305E2,2.3378271E2,2.1195221E2,2.586029E2,2.0799251E2,3.0890793E2,2.8448004E2,2.6455936E2,2.4249425E2,2.251424E2,2.5480373E2,2.6118842E2,2.9549573E2,3.427044E2,3.2689267E2,2.9291333E2,3.269667E2,3.0774875E2,3.3705E2,3.950104E2,3.4292947E2,2.9352643E2,3.0615506E2,3.260271E2,3.0790698E2,3.5294077E2,3.1882443E2,2.3600774E2,2.6881583E2,2.5026158E2,2.7298758E2,2.9832083E2,3.187115E2,2.7049472E2,2.5315146E2,3.1452536E2,3.5337143E2,2.6918637E2,3.0317703E2],"split_indices":[1,0,2,1,0,3,1,1,2,0,0,3,0,3,0,0,1,0,0,1,1,1,0,0,1,1,1,0,1,0,0,0,2,1,2,1,2,1,2,1,1,0,0,1,0,1,0,0,1,3,0,1,0,0,0,0,0,0,0,0,0,0,0,0,0,0,0,0,0,0,0,0,0,0,0,0,0,0,0,0,0,0,0,0,0,0,0,0,0,0,0,0,0,0,0,0,0,0,0,0,0],"split_type":[0,0,0,0,0,0,0,0,0,0,0,0,0,0,0,0,0,0,0,0,0,0,0,0,0,0,0,0,0,0,0,0,0,0,0,0,0,0,0,0,0,0,0,0,0,0,0,0,0,0,0,0,0,0,0,0,0,0,0,0,0,0,0,0,0,0,0,0,0,0,0,0,0,0,0,0,0,0,0,0,0,0,0,0,0,0,0,0,0,0,0,0,0,0,0,0,0,0,0,0,0],"sum_hessian":[1.16266E5,3.8797E4,7.7469E4,7.182E3,3.1615E4,5.5367E4,2.2102E4,6.288E3,8.94E2,1.0136E4,2.1479E4,4.0954E4,1.4413E4,4.15E3,1.7952E4,9.04E2,5.384E3,6.35E2,2.59E2,2.275E3,7.861E3,9.209E3,1.227E4,2.5078E4,1.5876E4,1.0158E4,4.255E3,7.47E2,3.403E3,7.376E3,1.0576E4,4.493E3,8.91E2,2.003E3,2.72E2,6.883E3,9.78E2,2.346E3,6.863E3,9.319E3,2.951E3,1.0285E4,1.4793E4,2.965E3,1.2911E4,9.534E3,6.24E2,2.653E3,1.602E3,1.13E3,2.273E3,3.236E3,4.14E3,5.314E3,5.262E3,3.524E3,9.69E2,6.35E2,2.56E2,2.95E2,1.708E3,1.95E2,7.7E1,1.982E3,4.901E3,6.93E2,2.85E2,1.171E3,1.175E3,4.944E3,1.919E3,8.148E3,1.171E3,2.577E3,3.74E2,6.677E3,3.608E3,1.2264E4,2.529E3,9.91E2,1.974E3,1.0555E4,2.356E3,6.368E3,3.166E3,2.035E3,6.18E2,1.062E3,5.4E2,9.82E2,1.48E2,7.57E2,1.516E3,1.743E3,1.493E3,1.243E3,2.897E3,1.385E3,3.929E3,3.799E3,1.463E3],"tree_param":{"num_deleted":"0","num_feature":"7","num_nodes":"101","size_leaf_vector":"1"}},{"base_weights":[2.9271047E4,2.4744816E4,3.1546422E4,2.7583883E4,2.4098418E4,3.2378883E4,2.943561E4,2.7089254E4,3.1020654E2,2.2540012E4,2.483303E4,3.0104686E4,3.612604E4,2.8533611E4,3.1748988E4,2.3782294E2,2.7291977E4,2.4506814E4,2.1958574E4,2.6551842E4,2.3567799E4,3.2488139E4,2.8402516E4,3.1109768E4,3.7269992E4,3.028756E4,2.8143717E4,3.085729E4,3.319552E4,2.8744656E2,2.704461E4,2.3995912E4,2.7873016E2,2.163146E4,2.4180086E4,2.9373729E4,2.561214E4,2.2696209E4,2.6204316E4,3.296028E4,3.1223559E4,2.7905066E4,3.120207E4,2.9986264E4,3.329476E4,3.8119277E4,3.46737E4,2.7357187E2,3.0960943E4,2.905615E4,2.742912E4,3.1689453E4,2.9773047E2,3.4278082E4,3.1084908E4,2.6729028E2,2.855317E2,2.5495717E2,2.3733533E2,2.4042177E2,2.1220665E2,2.5895694E2,2.3706314E2,3.0616125E2,2.8112137E2,2.3659068E2,2.6033337E2,2.232325E2,2.5312111E2,2.5775586E2,2.9108313E2,2.9916022E2,3.31422E2,3.1897928E2,2.7975452E2,2.917398E2,2.7445444E2,2.7697787E2,3.2019113E2,2.8886588E2,3.103295E2,3.380589E2,3.018044E2,3.4984753E2,3.8939926E2,3.5044406E2,2.891065E2,3.1269342E2,2.7029944E2,2.9221048E2,2.6499182E2,2.688066E2,2.8306573E2,3.232264E2,2.9879977E2,3.5338495E2,3.2858926E2,3.2149615E2,2.9909155E2],"categories":[],"categories_nodes":[],"categories_segments":[],"categories_sizes":[],"default_left":[0,0,0,0,0,0,0,0,0,0,0,0,0,0,0,0,0,0,0,0,0,0,0,0,0,0,0,0,0,0,0,0,0,0,0,0,0,0,0,0,0,0,0,0,0,0,0,0,0,0,0,0,0,0,0,0,0,0,0,0,0,0,0,0,0,0,0,0,0,0,0,0,0,0,0,0,0,0,0,0,0,0,0,0,0,0,0,0,0,0,0,0,0,0,0,0,0,0,0],"id":9,"left_children":[1,3,5,7,9,11,13,15,-1,17,19,21,23,25,27,-1,29,31,33,35,37,39,41,43,45,47,49,51,53,-1,55,57,-1,59,61,63,65,67,69,71,73,75,77,79,81,83,85,-1,87,89,91,93,-1,95,97,-1,-1,-1,-1,-1,-1,-1,-1,-1,-1,-1,-1,-1,-1,-1,-1,-1,-1,-1,-1,-1,-1,-1,-1,-1,-1,-1,-1,-1,-1,-1,-1,-1,-1,-1,-1,-1,-1,-1,-1,-1,-1,-1,-1],"loss_changes":[1.1994032E12,7.089003E10,1.3530825E11,1.1439964E10,3.5806773E10,4.7276098E11,4.4883247E10,3.5892756E9,0E0,1.1112284E10,4.6304068E10,1.3948577E11,1.19323754E11,9.949938E9,6.9043487E9,0E0,1.3610516E9,3.3141555E9,5.1983155E9,2.3489675E10,2.798964E10,7.574913E9,2.7258782E10,8.5875753E9,3.6364616E10,4.796449E9,7.6399247E9,2.5003295E9,4.2603643E9,0E0,1.665663E9,1.891369E8,0E0,6.295126E9,2.0054016E8,2.7082097E9,5.032116E9,8.5626716E9,3.089236E9,4.809818E9,7.731413E9,9.207546E9,7.8142505E9,2.0835205E9,1.0762322E9,3.1740396E10,8.0111206E9,0E0,1.9652936E9,1.614807E9,2.739929E9,1.4905508E9,0E0,1.1428168E9,4.115661E7,0E0,0E0,0E0,0E0,0E0,0E0,0E0,0E0,0E0,0E0,0E0,0E0,0E0,0E0,0E0,0E0,0E0,0E0,0E0,0E0,0E0,0E0,0E0,0E0,0E0,0E0,0E0,0E0,0E0,0E0,0E0,0E0,0E0,0E0,0E0,0E0,0E0,0E0,0E0,0E0,0E0,0E0,0E0,0E0],"parents":[2147483647,0,0,1,1,2,2,3,3,4,4,5,5,6,6,7,7,9,9,10,10,11,11,12,12,13,13,14,14,16,16,17,17,18,18,19,19,20,20,21,21,22,22,23,23,24,24,25,25,26,26,27,27,28,28,30,30,31,31,33,33,34,34,35,35,36,36,37,37,38,38,39,39,40,40,41,41,42,42,43,43,44,44,45,45,46,46,48,48,49,49,50,50,51,51,53,53,54,54],"right_children":[2,4,6,8,10,12,14,16,-1,18,20,22,24,26,28,-1,30,32,34,36,38,40,42,44,46,48,50,52,54,-1,56,58,-1,60,62,64,66,68,70,72,74,76,78,80,82,84,86,-1,88,90,92,94,-1,96,98,-1,-1,-1,-1,-1,-1,-1,-1,-1,-1,-1,-1,-1,-1,-1,-1,-1,-1,-1,-1,-1,-1,-1,-1,-1,-1,-1,-1,-1,-1,-1,-1,-1,-1,-1,-1,-1,-1,-1,-1,-1,-1,-1,-1],"split_conditions":[8E0,6.7E1,2.59E2,7E0,1.6E2,1.6E2,3.36E2,2.003E3,3.1020654E2,8.8E1,2.45E2,6.7E1,1.1E1,2.73E2,1.8E1,2.3782294E2,1E0,7E0,7E0,2E0,3.36E2,4.9E1,1.46E2,1E1,2.34E2,1.1E1,2.009E3,2.011E3,2.2E1,2.8744656E2,6E0,1E0,2.7873016E2,1E0,1.03E2,1E0,1.75E2,7E0,7E0,2.003E3,2.016E3,8.8E1,1.1E1,9E0,9E0,1.75E2,2.017E3,2.7357187E2,2.3E1,2.3E1,3.12E2,3.58E2,2.9773047E2,2.011E3,2.3E1,2.6729028E2,2.855317E2,2.5495717E2,2.3733533E2,2.4042177E2,2.1220665E2,2.5895694E2,2.3706314E2,3.0616125E2,2.8112137E2,2.3659068E2,2.6033337E2,2.232325E2,2.5312111E2,2.5775586E2,2.9108313E2,2.9916022E2,3.31422E2,3.1897928E2,2.7975452E2,2.917398E2,2.7445444E2,2.7697787E2,3.2019113E2,2.8886588E2,3.103295E2,3.380589E2,3.018044E2,3.4984753E2,3.8939926E2,3.5044406E2,2.891065E2,3.1269342E2,2.7029944E2,2.9221048E2,2.6499182E2,2.688066E2,2.8306573E2,3.232264E2,2.9879977E2,3.5338495E2,3.2858926E2,3.2149615E2,2.9909155E2],"split_indices":[1,0,0,1,0,0,0,6,0,0,0,0,1,0,1,0,1,1,1,1,0,0,0,1,0,1,6,6,1,0,1,1,0,1,0,1,0,1,1,6,6,0,1,1,5,0,6,0,1,1,0,0,0,6,1,0,0,0,0,0,0,0,0,0,0,0,0,0,0,0,0,0,0,0,0,0,0,0,0,0,0,0,0,0,0,0,0,0,0,0,0,0,0,0,0,0,0,0,0],"split_type":[0,0,0,0,0,0,0,0,0,0,0,0,0,0,0,0,0,0,0,0,0,0,0,0,0,0,0,0,0,0,0,0,0,0,0,0,0,0,0,0,0,0,0,0,0,0,0,0,0,0,0,0,0,0,0,0,0,0,0,0,0,0,0,0,0,0,0,0,0,0,0,0,0,0,0,0,0,0,0,0,0,0,0,0,0,0,0,0,0,0,0,0,0,0,0,0,0,0,0],"sum_hessian":[1.16535E5,3.8989E4,7.7546E4,7.223E3,3.1766E4,5.5603E4,2.1943E4,6.322E3,9.01E2,1.0187E4,2.1579E4,3.4608E4,2.0995E4,1.5797E4,6.146E3,3.72E2,5.95E3,2.315E3,7.872E3,9.141E3,1.2438E4,1.4411E4,2.0197E4,3.904E3,1.7091E4,2.859E3,1.2938E4,3.816E3,2.33E3,8.49E2,5.101E3,2.017E3,2.98E2,6.871E3,1.001E3,2.276E3,6.865E3,9.355E3,3.083E3,1.0475E4,3.936E3,1.7159E4,3.038E3,2.588E3,1.316E3,1.2868E4,4.223E3,5.42E2,2.317E3,5.665E3,7.273E3,2.143E3,1.673E3,1.53E3,8E2,4.234E3,8.67E2,2.86E2,1.731E3,9.92E2,5.879E3,2.05E2,7.96E2,1.135E3,1.141E3,1.228E3,5.637E3,8.196E3,1.159E3,2.695E3,3.88E2,6E2,9.875E3,3.252E3,6.84E2,4.546E3,1.2613E4,5.81E2,2.457E3,1.276E3,1.312E3,1.122E3,1.94E2,2.679E3,1.0189E4,3.963E3,2.6E2,2.142E3,1.75E2,5.312E3,3.53E2,4.495E3,2.778E3,1.575E3,5.68E2,8.62E2,6.68E2,4.06E2,3.94E2],"tree_param":{"num_deleted":"0","num_feature":"7","num_nodes":"99","size_leaf_vector":"1"}},{"base_weights":[2.8997408E4,2.4491984E4,3.1251693E4,2.7307209E4,2.3850139E4,3.2073318E4,2.91516E4,2.6803332E4,3.0821866E2,2.2300438E4,2.457885E4,2.9811213E4,3.579409E4,2.825584E4,3.1418715E4,2.3537521E2,2.7002414E4,2.4261166E4,2.1728893E4,2.6278043E4,2.3309877E4,3.2129621E4,2.8173846E4,3.0760963E4,3.6962316E4,2.9171045E4,2.7548682E4,3.0463863E4,3.2646266E4,2.8473233E2,2.6755346E4,2.3758855E4,2.763256E2,2.1418037E4,2.3870234E4,2.9155326E4,2.5323756E4,2.2441062E4,2.6001863E4,3.2599875E4,3.0877092E4,2.7655527E4,3.1066168E4,2.9671512E4,3.2939668E4,3.756273E4,3.335627E4,3.1290014E4,2.8771125E4,2.9160125E4,2.7184248E4,3.132453E4,2.9345673E2,3.340891E4,3.0683948E2,2.6469528E2,2.8172656E2,2.5223988E2,2.3502892E2,2.3806714E2,2.1008398E2,2.5303065E2,2.3297382E2,3.0367514E2,2.790787E2,2.4024756E2,2.5942334E2,2.2067337E2,2.5104683E2,2.5574358E2,2.8915024E2,2.9515952E2,3.2787152E2,3.1527335E2,2.7779733E2,2.8923334E2,2.7191287E2,2.754607E2,3.1894092E2,2.863124E2,3.0731308E2,3.356472E2,3.0560748E2,3.4497507E2,3.8185284E2,3.376606E2,2.7362668E2,2.8340256E2,3.1915714E2,2.893342E2,2.6266696E2,2.6807495E2,2.9910736E2,2.6641397E2,2.8063565E2,3.195403E2,2.964575E2,3.4397855E2,3.2117355E2],"categories":[],"categories_nodes":[],"categories_segments":[],"categories_sizes":[],"default_left":[0,0,0,0,0,0,0,0,0,0,0,0,0,0,0,0,0,0,0,0,0,0,0,0,0,0,0,0,0,0,0,0,0,0,0,0,0,0,0,0,0,0,0,0,0,0,0,0,0,0,0,0,0,0,0,0,0,0,0,0,0,0,0,0,0,0,0,0,0,0,0,0,0,0,0,0,0,0,0,0,0,0,0,0,0,0,0,0,0,0,0,0,0,0,0,0,0,0,0],"id":10,"left_children":[1,3,5,7,9,11,13,15,-1,17,19,21,23,25,27,-1,29,31,33,35,37,39,41,43,45,47,49,51,53,-1,55,57,-1,59,61,63,65,67,69,71,73,75,77,79,81,83,85,87,89,91,93,95,-1,97,-1,-1,-1,-1,-1,-1,-1,-1,-1,-1,-1,-1,-1,-1,-1,-1,-1,-1,-1,-1,-1,-1,-1,-1,-1,-1,-1,-1,-1,-1,-1,-1,-1,-1,-1,-1,-1,-1,-1,-1,-1,-1,-1,-1,-1],"loss_changes":[1.1811244E12,6.9478646E10,1.3288394E11,1.1922833E10,3.515246E10,4.6806335E11,4.3425726E10,3.4629222E9,0E0,1.0815537E10,4.5731545E10,1.307029E11,1.2274631E11,9.326035E9,6.238503E9,0E0,1.3951304E9,3.1978947E9,4.711776E9,2.4470618E10,2.8214034E10,7.4406953E9,2.9613883E10,8.457552E9,3.575644E10,4.865917E9,4.4029706E9,2.435842E9,2.994733E9,0E0,1.3196329E9,1.5269888E8,0E0,6.2143857E9,2.1980774E8,2.6002063E9,4.9230643E9,8.719434E9,2.9942088E9,5.044699E9,7.0474793E9,9.364832E9,8.100512E9,2.0525875E9,9.310044E8,2.6635928E10,5.0910986E9,1.0685645E9,1.5723397E9,2.05534E9,2.703229E9,1.1188306E9,0E0,1.3514834E9,0E0,0E0,0E0,0E0,0E0,0E0,0E0,0E0,0E0,0E0,0E0,0E0,0E0,0E0,0E0,0E0,0E0,0E0,0E0,0E0,0E0,0E0,0E0,0E0,0E0,0E0,0E0,0E0,0E0,0E0,0E0,0E0,0E0,0E0,0E0,0E0,0E0,0E0,0E0,0E0,0E0,0E0,0E0,0E0,0E0],"parents":[2147483647,0,0,1,1,2,2,3,3,4,4,5,5,6,6,7,7,9,9,10,10,11,11,12,12,13,13,14,14,16,16,17,17,18,18,19,19,20,20,21,21,22,22,23,23,24,24,25,25,26,26,27,27,28,28,30,30,31,31,33,33,34,34,35,35,36,36,37,37,38,38,39,39,40,40,41,41,42,42,43,43,44,44,45,45,46,46,47,47,48,48,49,49,50,50,51,51,53,53],"right_children":[2,4,6,8,10,12,14,16,-1,18,20,22,24,26,28,-1,30,32,34,36,38,40,42,44,46,48,50,52,54,-1,56,58,-1,60,62,64,66,68,70,72,74,76,78,80,82,84,86,88,90,92,94,96,-1,98,-1,-1,-1,-1,-1,-1,-1,-1,-1,-1,-1,-1,-1,-1,-1,-1,-1,-1,-1,-1,-1,-1,-1,-1,-1,-1,-1,-1,-1,-1,-1,-1,-1,-1,-1,-1,-1,-1,-1,-1,-1,-1,-1,-1,-1],"split_conditions":[8E0,6.7E1,2.59E2,7E0,1.6E2,1.6E2,3.36E2,2.003E3,3.0821866E2,8.8E1,2.46E2,6.7E1,1.1E1,2.009E3,1.7E1,2.3537521E2,1E0,7E0,7E0,2E0,3.37E2,4.9E1,1.46E2,1E1,9E0,2.71E2,2.73E2,2.011E3,2.2E1,2.8473233E2,6E0,1E0,2.763256E2,1E0,1.08E2,1E0,1.87E2,7E0,7E0,2.003E3,2.016E3,8.8E1,1.1E1,9E0,2.36E2,1.74E2,2.017E3,1.1E1,2.3E1,1.2E1,3.12E2,3.58E2,2.9345673E2,2.011E3,3.0683948E2,2.6469528E2,2.8172656E2,2.5223988E2,2.3502892E2,2.3806714E2,2.1008398E2,2.5303065E2,2.3297382E2,3.0367514E2,2.790787E2,2.4024756E2,2.5942334E2,2.2067337E2,2.5104683E2,2.5574358E2,2.8915024E2,2.9515952E2,3.2787152E2,3.1527335E2,2.7779733E2,2.8923334E2,2.7191287E2,2.754607E2,3.1894092E2,2.863124E2,3.0731308E2,3.356472E2,3.0560748E2,3.4497507E2,3.8185284E2,3.376606E2,2.7362668E2,2.8340256E2,3.1915714E2,2.893342E2,2.6266696E2,2.6807495E2,2.9910736E2,2.6641397E2,2.8063565E2,3.195403E2,2.964575E2,3.4397855E2,3.2117355E2],"split_indices":[1,0,0,1,0,0,0,6,0,0,0,0,1,6,1,0,1,1,1,1,0,0,0,1,5,0,0,6,1,0,1,1,0,1,0,1,0,1,1,6,6,0,1,1,0,0,6,1,1,1,0,0,0,6,0,0,0,0,0,0,0,0,0,0,0,0,0,0,0,0,0,0,0,0,0,0,0,0,0,0,0,0,0,0,0,0,0,0,0,0,0,0,0,0,0,0,0,0,0],"split_type":[0,0,0,0,0,0,0,0,0,0,0,0,0,0,0,0,0,0,0,0,0,0,0,0,0,0,0,0,0,0,0,0,0,0,0,0,0,0,0,0,0,0,0,0,0,0,0,0,0,0,0,0,0,0,0,0,0,0,0,0,0,0,0,0,0,0,0,0,0,0,0,0,0,0,0,0,0,0,0,0,0,0,0,0,0,0,0,0,0,0,0,0,0,0,0,0,0,0,0],"sum_hessian":[1.16367E5,3.8811E4,7.7556E4,7.198E3,3.1613E4,5.5736E4,2.182E4,6.303E3,8.95E2,1.0121E4,2.1492E4,3.4668E4,2.1068E4,1.565E4,6.17E3,3.69E2,5.934E3,2.275E3,7.846E3,9.18E3,1.2312E4,1.4342E4,2.0326E4,3.974E3,1.7094E4,6.804E3,8.846E3,3.485E3,2.685E3,8.37E2,5.097E3,1.987E3,2.88E2,6.861E3,9.85E2,2.279E3,6.901E3,9.315E3,2.997E3,1.0409E4,3.933E3,1.7246E4,3.08E3,2.659E3,1.315E3,1.4646E4,2.448E3,1.068E3,5.736E3,1.617E3,7.229E3,1.954E3,1.531E3,1.922E3,7.63E2,4.258E3,8.39E2,2.81E2,1.706E3,9.96E2,5.865E3,2.69E2,7.16E2,1.144E3,1.135E3,2.239E3,4.662E3,8.177E3,1.138E3,2.622E3,3.75E2,6.05E2,9.804E3,3.243E3,6.9E2,4.606E3,1.264E4,5.93E2,2.487E3,1.356E3,1.303E3,1.031E3,2.84E2,2.482E3,1.2164E4,2.287E3,1.61E2,1.95E2,8.73E2,5.377E3,3.59E2,4E2,1.217E3,4.489E3,2.74E3,1.408E3,5.46E2,1.074E3,8.48E2],"tree_param":{"num_deleted":"0","num_feature":"7","num_nodes":"99","size_leaf_vector":"1"}},{"base_weights":[2.8700969E4,2.4250596E4,3.0924379E4,2.7008152E4,2.3621857E4,3.1740908E4,2.8856225E4,2.652655E4,3.0382037E2,2.207093E4,2.4349266E4,2.9511547E4,3.543773E4,2.7966967E4,3.111356E4,2.325927E2,2.6716283E4,2.3997492E4,2.1516578E4,2.6062703E4,2.3096693E4,3.183283E4,2.787023E4,3.043601E4,3.6589906E4,2.866527E4,2.706667E4,3.0295553E4,3.247383E4,2.6481416E4,2.8087512E2,2.35018E4,2.7241782E2,2.1198535E4,2.3696686E4,2.8887592E4,2.5116818E4,2.222703E4,2.5655941E4,3.2291086E4,3.0604404E4,2.7369803E4,3.0709547E4,2.9392287E4,3.2523328E4,3.7413688E4,3.4009234E4,3.070597E4,2.8290084E4,2.854437E4,2.6737715E4,3.1141268E4,2.920476E2,3.3472562E4,3.0419701E4,2.80955E2,2.6157913E2,2.4953441E2,2.3251056E2,2.2723918E2,2.0589969E2,2.5030302E2,2.3140036E2,3.0084662E2,2.766394E2,2.3189435E2,2.5536993E2,2.1842703E2,2.4938556E2,2.5221967E2,2.8589792E2,2.9191916E2,3.248738E2,3.1256973E2,2.754575E2,2.860099E2,2.6920416E2,2.6955118E2,3.1574622E2,2.990413E2,2.7637277E2,3.3208197E2,3.0022034E2,3.4375073E2,3.826123E2,3.4357285E2,2.8778256E2,2.7573917E2,3.143677E2,2.8461887E2,2.57103E2,2.7914798E2,3.217119E2,2.6166318E2,2.7973663E2,3.1747495E2,2.9443442E2,3.4486047E2,3.2125696E2,3.139447E2,2.910989E2],"categories":[],"categories_nodes":[],"categories_segments":[],"categories_sizes":[],"default_left":[0,0,0,0,0,0,0,0,0,0,0,0,0,0,0,0,0,0,0,0,0,0,0,0,0,0,0,0,0,0,0,0,0,0,0,0,0,0,0,0,0,0,0,0,0,0,0,0,0,0,0,0,0,0,0,0,0,0,0,0,0,0,0,0,0,0,0,0,0,0,0,0,0,0,0,0,0,0,0,0,0,0,0,0,0,0,0,0,0,0,0,0,0,0,0,0,0,0,0,0,0],"id":11,"left_children":[1,3,5,7,9,11,13,15,-1,17,19,21,23,25,27,-1,29,31,33,35,37,39,41,43,45,47,49,51,53,55,-1,57,-1,59,61,63,65,67,69,71,73,75,77,79,81,83,85,87,89,91,93,95,-1,97,99,-1,-1,-1,-1,-1,-1,-1,-1,-1,-1,-1,-1,-1,-1,-1,-1,-1,-1,-1,-1,-1,-1,-1,-1,-1,-1,-1,-1,-1,-1,-1,-1,-1,-1,-1,-1,-1,-1,-1,-1,-1,-1,-1,-1,-1,-1],"loss_changes":[1.1487695E12,6.6473427E10,1.2990598E11,1.0860626E10,3.5032924E10,4.5658774E11,4.3167777E10,3.2783729E9,0E0,1.024616E10,4.544004E10,1.3110975E11,1.1923777E11,9.124708E9,5.905056E9,0E0,1.168638E9,2.9669458E9,4.930142E9,2.3461364E10,2.7032814E10,7.085228E9,2.8006416E10,7.575175E9,3.4802237E10,5.90925E9,2.5894584E9,2.670723E9,3.722969E9,1.9217777E9,0E0,1.3067878E8,0E0,5.8880164E9,1.5499264E8,2.4840765E9,4.9055007E9,9.109504E9,3.2756204E9,5.395972E9,6.9552046E9,8.78497E9,9.002811E9,1.5280374E9,1.2231639E9,3.1784436E10,6.5069384E9,2.2528655E9,2.5878856E9,1.9356058E9,3.2634307E9,1.299841E9,0E0,1.00099686E9,6.540493E7,0E0,0E0,0E0,0E0,0E0,0E0,0E0,0E0,0E0,0E0,0E0,0E0,0E0,0E0,0E0,0E0,0E0,0E0,0E0,0E0,0E0,0E0,0E0,0E0,0E0,0E0,0E0,0E0,0E0,0E0,0E0,0E0,0E0,0E0,0E0,0E0,0E0,0E0,0E0,0E0,0E0,0E0,0E0,0E0,0E0,0E0],"parents":[2147483647,0,0,1,1,2,2,3,3,4,4,5,5,6,6,7,7,9,9,10,10,11,11,12,12,13,13,14,14,16,16,17,17,18,18,19,19,20,20,21,21,22,22,23,23,24,24,25,25,26,26,27,27,28,28,29,29,31,31,33,33,34,34,35,35,36,36,37,37,38,38,39,39,40,40,41,41,42,42,43,43,44,44,45,45,46,46,47,47,48,48,49,49,50,50,51,51,53,53,54,54],"right_children":[2,4,6,8,10,12,14,16,-1,18,20,22,24,26,28,-1,30,32,34,36,38,40,42,44,46,48,50,52,54,56,-1,58,-1,60,62,64,66,68,70,72,74,76,78,80,82,84,86,88,90,92,94,96,-1,98,100,-1,-1,-1,-1,-1,-1,-1,-1,-1,-1,-1,-1,-1,-1,-1,-1,-1,-1,-1,-1,-1,-1,-1,-1,-1,-1,-1,-1,-1,-1,-1,-1,-1,-1,-1,-1,-1,-1,-1,-1,-1,-1,-1,-1,-1,-1],"split_conditions":[8E0,6.7E1,2.59E2,7E0,1.6E2,1.6E2,3.36E2,2.003E3,3.0382037E2,8.8E1,2.45E2,6.7E1,1.1E1,2.011E3,1.8E1,2.325927E2,6E0,7E0,7E0,2E0,3.36E2,4.9E1,1.46E2,1E1,2.34E2,2.71E2,2.73E2,2.011E3,2.2E1,1E0,2.8087512E2,1E0,2.7241782E2,2E0,1.08E2,1E0,1.75E2,7E0,7E0,2.003E3,2.016E3,8.8E1,1.1E1,2.36E2,2.36E2,2.6E1,2.017E3,1.1E1,2.3E1,2.017E3,4.6E1,3.58E2,2.920476E2,2.011E3,2.011E3,2.80955E2,2.6157913E2,2.4953441E2,2.3251056E2,2.2723918E2,2.0589969E2,2.5030302E2,2.3140036E2,3.0084662E2,2.766394E2,2.3189435E2,2.5536993E2,2.1842703E2,2.4938556E2,2.5221967E2,2.8589792E2,2.9191916E2,3.248738E2,3.1256973E2,2.754575E2,2.860099E2,2.6920416E2,2.6955118E2,3.1574622E2,2.990413E2,2.7637277E2,3.3208197E2,3.0022034E2,3.4375073E2,3.826123E2,3.4357285E2,2.8778256E2,2.7573917E2,3.143677E2,2.8461887E2,2.57103E2,2.7914798E2,3.217119E2,2.6166318E2,2.7973663E2,3.1747495E2,2.9443442E2,3.4486047E2,3.2125696E2,3.139447E2,2.910989E2],"split_indices":[1,0,0,1,0,0,0,6,0,0,0,0,1,6,1,0,1,1,1,1,0,0,0,1,0,0,0,6,1,1,0,1,0,1,0,1,0,1,1,6,6,0,1,0,0,3,6,1,1,6,3,0,0,6,6,0,0,0,0,0,0,0,0,0,0,0,0,0,0,0,0,0,0,0,0,0,0,0,0,0,0,0,0,0,0,0,0,0,0,0,0,0,0,0,0,0,0,0,0,0,0],"split_type":[0,0,0,0,0,0,0,0,0,0,0,0,0,0,0,0,0,0,0,0,0,0,0,0,0,0,0,0,0,0,0,0,0,0,0,0,0,0,0,0,0,0,0,0,0,0,0,0,0,0,0,0,0,0,0,0,0,0,0,0,0,0,0,0,0,0,0,0,0,0,0,0,0,0,0,0,0,0,0,0,0,0,0,0,0,0,0,0,0,0,0,0,0,0,0,0,0,0,0,0,0],"sum_hessian":[1.16171E5,3.8707E4,7.7464E4,7.179E3,3.1528E4,5.5527E4,2.1937E4,6.29E3,8.89E2,1.0076E4,2.1452E4,3.4644E4,2.0883E4,1.5747E4,6.19E3,3.52E2,5.938E3,2.242E3,7.834E3,9.051E3,1.2401E4,1.4342E4,2.0302E4,3.915E3,1.6968E4,8.851E3,6.896E3,3.88E3,2.31E3,5.087E3,8.51E2,1.952E3,2.9E2,6.846E3,9.88E2,2.263E3,6.788E3,9.263E3,3.138E3,1.0427E4,3.915E3,1.7269E4,3.033E3,2.62E3,1.295E3,1.2852E4,4.116E3,1.362E3,7.489E3,1.24E3,5.656E3,2.17E3,1.71E3,1.544E3,7.66E2,8.35E2,4.252E3,2.73E2,1.679E3,1.942E3,4.904E3,2.78E2,7.1E2,1.132E3,1.131E3,1.225E3,5.563E3,8.121E3,1.142E3,2.742E3,3.96E2,6.3E2,9.797E3,3.219E3,6.96E2,4.601E3,1.2668E4,5.74E2,2.459E3,2.016E3,6.04E2,1.007E3,2.88E2,2.812E3,1.004E4,3.854E3,2.62E2,2.65E2,1.097E3,7.012E3,4.77E2,1.064E3,1.76E2,3.883E3,1.773E3,1.586E3,5.84E2,8.67E2,6.77E2,4.26E2,3.4E2],"tree_param":{"num_deleted":"0","num_feature":"7","num_nodes":"101","size_leaf_vector":"1"}},{"base_weights":[2.8411354E4,2.398944E4,3.0614346E4,2.6758254E4,2.3359926E4,3.1671168E4,2.798068E4,2.6270361E4,3.0144592E4,2.1816912E4,2.408362E4,3.2522312E4,2.950248E4,2.5314314E4,2.8588363E4,2.2991191E2,2.646879E4,3.161406E2,2.6490475E2,2.3710412E4,2.1257246E4,2.5737266E4,2.284955E4,3.0232137E4,3.63627E4,2.8681217E4,3.1586594E4,2.8423532E2,2.461136E4,2.6802375E4,2.9821828E4,2.7905664E2,2.6216549E4,2.3248969E4,2.6902258E4,2.0952604E4,2.338918E4,2.8578463E4,2.479528E4,2.1973094E4,2.5472604E4,3.2405611E4,2.8710732E4,3.175525E4,3.7420812E4,2.944852E4,2.7695475E4,3.252338E4,3.0331082E4,2.3049645E4,2.5375062E4,2.9451867E4,2.4763988E4,3.292192E4,2.6727756E4,2.5889987E2,2.7813434E2,2.4691248E2,2.3010847E2,2.8345474E2,2.3100505E2,2.3292578E2,2.055331E2,2.4839098E2,1.9804842E2,2.980758E2,2.7339377E2,2.5399855E2,2.3275844E2,2.160893E2,2.4521492E2,2.5036818E2,2.831946E2,3.276593E2,3.065699E2,2.8134085E2,3.1312665E2,2.9736862E2,3.2761444E2,3.8062103E2,3.3891855E2,3.1591562E2,2.9044803E2,2.7888882E2,2.4693098E2,3.3236368E2,3.0599023E2,2.9560696E2,3.127499E2,2.2599123E2,2.5785114E2,2.3813742E2,2.612246E2,2.851862E2,3.052985E2,2.590646E2,2.4262521E2,3.0308145E2,3.3845834E2,2.5824478E2,2.9081802E2],"categories":[],"categories_nodes":[],"categories_segments":[],"categories_sizes":[],"default_left":[0,0,0,0,0,0,0,0,0,0,0,0,0,0,0,0,0,0,0,0,0,0,0,0,0,0,0,0,0,0,0,0,0,0,0,0,0,0,0,0,0,0,0,0,0,0,0,0,0,0,0,0,0,0,0,0,0,0,0,0,0,0,0,0,0,0,0,0,0,0,0,0,0,0,0,0,0,0,0,0,0,0,0,0,0,0,0,0,0,0,0,0,0,0,0,0,0,0,0,0,0],"id":12,"left_children":[1,3,5,7,9,11,13,15,17,19,21,23,25,27,29,-1,31,-1,-1,33,35,37,39,41,43,45,47,-1,49,51,53,-1,55,57,59,61,63,65,67,69,71,73,75,77,79,81,83,85,87,89,91,93,95,97,99,-1,-1,-1,-1,-1,-1,-1,-1,-1,-1,-1,-1,-1,-1,-1,-1,-1,-1,-1,-1,-1,-1,-1,-1,-1,-1,-1,-1,-1,-1,-1,-1,-1,-1,-1,-1,-1,-1,-1,-1,-1,-1,-1,-1,-1,-1],"loss_changes":[1.1288885E12,6.6592965E10,2.1453026E11,1.1000087E10,3.457155E10,1.0097787E11,3.5201745E10,3.4555822E9,3.952214E9,1.0141303E10,4.3052433E10,3.476281E11,2.5753027E10,8.313897E9,3.896089E10,0E0,1.4008975E9,0E0,0E0,2.7371766E9,4.5518684E9,2.3729275E10,2.7614773E10,8.12206E10,7.099908E10,7.644119E9,4.1806725E9,0E0,3.4355282E9,3.914439E10,1.01437145E11,0E0,1.8981847E9,1.1940659E8,8.9245286E8,5.87622E9,4.507599E9,2.637693E9,5.7150013E9,8.001159E9,3.091071E9,5.435818E9,2.10596E10,4.6554153E9,2.594911E10,4.5099254E9,2.1634744E9,2.415919E9,4.512809E8,7.9508275E8,2.0082852E9,2.353791E9,1.7655398E9,1.1831607E10,1.0612376E10,0E0,0E0,0E0,0E0,0E0,0E0,0E0,0E0,0E0,0E0,0E0,0E0,0E0,0E0,0E0,0E0,0E0,0E0,0E0,0E0,0E0,0E0,0E0,0E0,0E0,0E0,0E0,0E0,0E0,0E0,0E0,0E0,0E0,0E0,0E0,0E0,0E0,0E0,0E0,0E0,0E0,0E0,0E0,0E0,0E0,0E0],"parents":[2147483647,0,0,1,1,2,2,3,3,4,4,5,5,6,6,7,7,8,8,9,9,10,10,11,11,12,12,13,13,14,14,16,16,19,19,20,20,21,21,22,22,23,23,24,24,25,25,26,26,28,28,29,29,30,30,32,32,33,33,34,34,35,35,36,36,37,37,38,38,39,39,40,40,41,41,42,42,43,43,44,44,45,45,46,46,47,47,48,48,49,49,50,50,51,51,52,52,53,53,54,54],"right_children":[2,4,6,8,10,12,14,16,18,20,22,24,26,28,30,-1,32,-1,-1,34,36,38,40,42,44,46,48,-1,50,52,54,-1,56,58,60,62,64,66,68,70,72,74,76,78,80,82,84,86,88,90,92,94,96,98,100,-1,-1,-1,-1,-1,-1,-1,-1,-1,-1,-1,-1,-1,-1,-1,-1,-1,-1,-1,-1,-1,-1,-1,-1,-1,-1,-1,-1,-1,-1,-1,-1,-1,-1,-1,-1,-1,-1,-1,-1,-1,-1,-1,-1,-1,-1],"split_conditions":[8E0,6.7E1,5E0,7E0,1.6E2,2.59E2,1.1E1,2.003E3,5E0,8.8E1,2.46E2,1.61E2,3.36E2,6.7E1,1.47E2,2.2991191E2,1E0,3.161406E2,2.6490475E2,7E0,7E0,2E0,3.36E2,6.7E1,1.1E1,2.011E3,2.011E3,2.8423532E2,9E0,6.5E1,2.55E2,2.7905664E2,6E0,1E0,5E0,1E0,5E0,1E0,5E0,7E0,7E0,2.016E3,1.44E2,9E0,2.2E1,2.71E2,2.3E1,3.58E2,1.7E1,3.27E2,1.6E2,1.8E1,9E1,1.75E2,3.35E2,2.5889987E2,2.7813434E2,2.4691248E2,2.3010847E2,2.8345474E2,2.3100505E2,2.3292578E2,2.055331E2,2.4839098E2,1.9804842E2,2.980758E2,2.7339377E2,2.5399855E2,2.3275844E2,2.160893E2,2.4521492E2,2.5036818E2,2.831946E2,3.276593E2,3.065699E2,2.8134085E2,3.1312665E2,2.9736862E2,3.2761444E2,3.8062103E2,3.3891855E2,3.1591562E2,2.9044803E2,2.7888882E2,2.4693098E2,3.3236368E2,3.0599023E2,2.9560696E2,3.127499E2,2.2599123E2,2.5785114E2,2.3813742E2,2.612246E2,2.851862E2,3.052985E2,2.590646E2,2.4262521E2,3.0308145E2,3.3845834E2,2.5824478E2,2.9081802E2],"split_indices":[1,0,2,1,0,0,1,6,2,0,0,0,0,0,0,0,1,0,0,1,1,1,0,0,1,6,6,0,1,0,0,0,1,1,2,1,2,1,2,1,1,6,0,1,1,0,1,0,1,0,0,1,0,0,0,0,0,0,0,0,0,0,0,0,0,0,0,0,0,0,0,0,0,0,0,0,0,0,0,0,0,0,0,0,0,0,0,0,0,0,0,0,0,0,0,0,0,0,0,0,0],"split_type":[0,0,0,0,0,0,0,0,0,0,0,0,0,0,0,0,0,0,0,0,0,0,0,0,0,0,0,0,0,0,0,0,0,0,0,0,0,0,0,0,0,0,0,0,0,0,0,0,0,0,0,0,0,0,0,0,0,0,0,0,0,0,0,0,0,0,0,0,0,0,0,0,0,0,0,0,0,0,0,0,0,0,0,0,0,0,0,0,0,0,0,0,0,0,0,0,0,0,0,0,0],"sum_hessian":[1.15959E5,3.8564E4,7.7395E4,7.136E3,3.1428E4,5.5224E4,2.2171E4,6.245E3,8.91E2,1.0044E4,2.1384E4,3.9649E4,1.5575E4,4.123E3,1.8048E4,3.63E2,5.882E3,6.3E2,2.61E2,2.282E3,7.762E3,9.13E3,1.2254E4,2.4843E4,1.4806E4,1.1183E4,4.392E3,7.53E2,3.37E3,7.382E3,1.0666E4,8.62E2,5.02E3,2.001E3,2.81E2,6.801E3,9.61E2,2.266E3,6.864E3,9.192E3,3.062E3,1.0221E4,1.4622E4,2.771E3,1.2035E4,6.272E3,4.911E3,2.501E3,1.891E3,1.117E3,2.253E3,3.204E3,4.178E3,5.323E3,5.343E3,4.182E3,8.38E2,2.69E2,1.732E3,1.99E2,8.2E1,9.83E2,5.818E3,6.8E2,2.81E2,1.126E3,1.14E3,4.899E3,1.965E3,8.051E3,1.141E3,2.664E3,3.98E2,8.46E3,1.761E3,1.1979E4,2.643E3,9.32E2,1.839E3,1.0176E4,1.859E3,9.82E2,5.29E3,4.606E3,3.05E2,1.813E3,6.88E2,1.059E3,8.32E2,9.67E2,1.5E2,7.4E2,1.513E3,1.732E3,1.472E3,1.259E3,2.919E3,1.399E3,3.924E3,3.87E3,1.473E3],"tree_param":{"num_deleted":"0","num_feature":"7","num_nodes":"101","size_leaf_vector":"1"}},{"base_weights":[2.8123018E4,2.3740135E4,3.0305836E4,2.656904E4,2.3177385E4,3.1342738E4,2.7707139E4,2.6109996E4,2.9809748E4,2.5673309E4,2.282625E4,3.2085242E4,2.9051238E4,2.5039828E4,2.8321385E4,2.2882283E2,2.6303496E4,3.115196E2,2.6432666E2,2.348739E4,2.6641936E4,2.24238E4,2.5217357E4,2.986144E4,3.4912324E4,2.7954924E4,3.120355E4,2.823657E2,2.4394734E4,2.6644904E4,2.9540793E4,2.77568E2,2.6053512E4,2.4687091E2,2.2827142E2,2.9139562E4,2.4636215E4,2.1148355E4,2.2995838E4,2.668325E4,2.1602064E4,3.2232021E4,2.8326553E4,3.0750424E4,3.5871715E4,2.8919828E4,2.720217E4,3.2127406E4,2.9972158E4,2.2826762E4,2.5169861E4,2.9289916E4,2.4939473E4,3.3094203E4,2.6755973E4,2.577505E2,2.741574E2,2.696855E2,3.0148773E2,2.389489E2,2.6809146E2,2.3062242E2,2.0176453E2,2.4446677E2,2.1857759E2,2.638358E2,2.9272125E2,2.127063E2,2.4458742E2,3.2567694E2,3.061525E2,2.8660635E2,2.677363E2,3.1514124E2,2.8311087E2,3.706262E2,3.20557E2,2.9130188E2,2.5832025E2,2.7388397E2,2.4314693E2,3.1368253E2,3.3373886E2,2.918755E2,3.0920828E2,2.2445187E2,2.5911444E2,2.3708707E2,2.5799118E2,2.8361145E2,3.0365506E2,2.5940164E2,2.4418706E2,3.0937247E2,3.4160776E2,2.6048758E2,2.8797272E2],"categories":[],"categories_nodes":[],"categories_segments":[],"categories_sizes":[],"default_left":[0,0,0,0,0,0,0,0,0,0,0,0,0,0,0,0,0,0,0,0,0,0,0,0,0,0,0,0,0,0,0,0,0,0,0,0,0,0,0,0,0,0,0,0,0,0,0,0,0,0,0,0,0,0,0,0,0,0,0,0,0,0,0,0,0,0,0,0,0,0,0,0,0,0,0,0,0,0,0,0,0,0,0,0,0,0,0,0,0,0,0,0,0,0,0,0,0],"id":13,"left_children":[1,3,5,7,9,11,13,15,17,19,21,23,25,27,29,-1,31,-1,-1,33,35,37,39,41,43,45,47,-1,49,51,53,-1,55,-1,-1,57,59,61,63,65,67,69,71,73,75,77,79,81,83,85,87,89,91,93,95,-1,-1,-1,-1,-1,-1,-1,-1,-1,-1,-1,-1,-1,-1,-1,-1,-1,-1,-1,-1,-1,-1,-1,-1,-1,-1,-1,-1,-1,-1,-1,-1,-1,-1,-1,-1,-1,-1,-1,-1,-1,-1],"loss_changes":[1.1130844E12,6.100825E10,2.085408E11,8.766095E9,2.771701E10,9.356653E10,3.561803E10,2.9134684E9,2.7529708E9,7.7903954E9,2.6688356E10,2.6262215E11,3.1225545E10,7.887651E9,3.6042703E10,0E0,1.203241E9,0E0,0E0,4.099932E8,1.3043237E10,1.7206084E10,2.1003502E10,8.4523614E10,7.259921E10,5.7661194E9,4.2498785E9,0E0,3.6403937E9,3.3533985E10,1.0222672E11,0E0,1.015808E9,0E0,0E0,1.8555863E9,1.8240635E9,1.3524533E10,2.708996E10,1.4722007E9,5.969019E8,4.0076575E9,6.6311946E9,5.562958E9,6.695787E10,1.8053857E9,2.0683162E9,1.4171505E9,5.7042534E8,7.813857E8,1.5132262E9,2.1076378E9,1.7770742E9,9.46602E9,7.6907807E9,0E0,0E0,0E0,0E0,0E0,0E0,0E0,0E0,0E0,0E0,0E0,0E0,0E0,0E0,0E0,0E0,0E0,0E0,0E0,0E0,0E0,0E0,0E0,0E0,0E0,0E0,0E0,0E0,0E0,0E0,0E0,0E0,0E0,0E0,0E0,0E0,0E0,0E0,0E0,0E0,0E0,0E0],"parents":[2147483647,0,0,1,1,2,2,3,3,4,4,5,5,6,6,7,7,8,8,9,9,10,10,11,11,12,12,13,13,14,14,16,16,19,19,20,20,21,21,22,22,23,23,24,24,25,25,26,26,28,28,29,29,30,30,32,32,35,35,36,36,37,37,38,38,39,39,40,40,41,41,42,42,43,43,44,44,45,45,46,46,47,47,48,48,49,49,50,50,51,51,52,52,53,53,54,54],"right_children":[2,4,6,8,10,12,14,16,18,20,22,24,26,28,30,-1,32,-1,-1,34,36,38,40,42,44,46,48,-1,50,52,54,-1,56,-1,-1,58,60,62,64,66,68,70,72,74,76,78,80,82,84,86,88,90,92,94,96,-1,-1,-1,-1,-1,-1,-1,-1,-1,-1,-1,-1,-1,-1,-1,-1,-1,-1,-1,-1,-1,-1,-1,-1,-1,-1,-1,-1,-1,-1,-1,-1,-1,-1,-1,-1,-1,-1,-1,-1,-1,-1],"split_conditions":[8E0,3E0,5E0,7E0,1E0,4E0,1.1E1,2.003E3,5E0,6E0,7E0,6E0,1.2E1,3E0,6E0,2.2882283E2,1E0,3.115196E2,2.6432666E2,2E0,9E0,6E0,5E0,3E0,1.1E1,2.009E3,2.011E3,2.823657E2,9E0,3E0,9E0,2.77568E2,6E0,2.4687091E2,2.2827142E2,3E0,1.2E1,2E0,9E0,1.2E1,1.2E1,2.016E3,2.016E3,9E0,9E0,2.3E1,2.3E1,1.8E1,1.7E1,1.2E1,6E0,1.8E1,2E0,3E0,1.2E1,2.577505E2,2.741574E2,2.696855E2,3.0148773E2,2.389489E2,2.6809146E2,2.3062242E2,2.0176453E2,2.4446677E2,2.1857759E2,2.638358E2,2.9272125E2,2.127063E2,2.4458742E2,3.2567694E2,3.061525E2,2.8660635E2,2.677363E2,3.1514124E2,2.8311087E2,3.706262E2,3.20557E2,2.9130188E2,2.5832025E2,2.7388397E2,2.4314693E2,3.1368253E2,3.3373886E2,2.918755E2,3.0920828E2,2.2445187E2,2.5911444E2,2.3708707E2,2.5799118E2,2.8361145E2,3.0365506E2,2.5940164E2,2.4418706E2,3.0937247E2,3.4160776E2,2.6048758E2,2.8797272E2],"split_indices":[1,5,2,1,1,4,1,6,2,5,1,5,5,5,5,0,1,0,0,4,5,5,2,5,1,6,6,0,1,5,5,0,1,0,0,4,5,4,5,5,5,6,6,5,5,1,1,1,1,5,5,1,4,4,5,0,0,0,0,0,0,0,0,0,0,0,0,0,0,0,0,0,0,0,0,0,0,0,0,0,0,0,0,0,0,0,0,0,0,0,0,0,0,0,0,0,0],"split_type":[0,0,0,0,0,0,0,0,0,0,0,0,0,0,0,0,0,0,0,0,0,0,0,0,0,0,0,0,0,0,0,0,0,0,0,0,0,0,0,0,0,0,0,0,0,0,0,0,0,0,0,0,0,0,0,0,0,0,0,0,0,0,0,0,0,0,0,0,0,0,0,0,0,0,0,0,0,0,0,0,0,0,0,0,0,0,0,0,0,0,0,0,0,0,0,0,0],"sum_hessian":[1.16421E5,3.8709E4,7.7712E4,6.415E3,3.2294E4,5.554E4,2.2172E4,5.627E3,7.88E2,3.974E3,2.832E4,4.1938E4,1.3602E4,4.158E3,1.8014E4,3.25E2,5.302E3,5.58E2,2.3E2,1.228E3,2.746E3,2.4249E4,4.071E3,2.348E4,1.8458E4,9.021E3,4.581E3,6.91E2,3.467E3,7.595E3,1.0419E4,7.62E2,4.54E3,4.23E2,8.05E2,1.217E3,1.529E3,7.52E3,1.6729E4,2.892E3,1.179E3,9.22E3,1.426E4,3.464E3,1.4994E4,3.937E3,5.084E3,2.603E3,1.978E3,1.157E3,2.31E3,2.971E3,4.624E3,4.573E3,5.846E3,3.786E3,7.54E2,3.95E2,8.22E2,1.149E3,3.8E2,2.525E3,4.995E3,7.345E3,9.384E3,2.602E3,2.9E2,1.064E3,1.15E2,7.619E3,1.601E3,1.1721E4,2.539E3,2.629E3,8.35E2,1.1421E4,3.573E3,3.678E3,2.59E2,4.768E3,3.16E2,1.634E3,9.69E2,1.1E3,8.78E2,1.037E3,1.2E2,7.07E2,1.603E3,1.609E3,1.362E3,1.566E3,3.058E3,1.523E3,3.05E3,4.352E3,1.494E3],"tree_param":{"num_deleted":"0","num_feature":"7","num_nodes":"97","size_leaf_vector":"1"}},{"base_weights":[2.7847934E4,2.867603E4,2.5775906E4,2.9412613E4,2.6792957E4,2.6392375E4,2.4335572E4,2.7777037E4,3.2527156E4,2.5949885E4,2.9162229E4,2.4922244E4,2.8964414E4,2.3407717E4,2.681012E4,3.0063393E4,2.6293072E4,3.336101E4,3.017814E4,2.6582396E4,2.5130652E4,3.0079646E4,2.7968729E4,2.769725E4,2.316726E4,2.932087E4,2.6446871E4,2.47533E4,2.3051066E4,2.7428738E4,2.6003768E4,2.7308313E2,3.0238295E4,2.5699994E4,2.8712586E4,3.1842639E4,3.399322E4,3.0469352E4,2.604179E4,2.8010712E2,2.6263385E4,2.4760678E4,2.6170568E4,3.0610441E4,2.8449818E4,2.6392114E2,2.8284807E4,2.3985344E2,2.7928234E4,2.27384E4,2.5304994E4,2.7398654E4,2.9864725E4,2.6909355E4,2.0038779E2,2.5635748E2,2.359527E4,2.2435607E4,2.437822E2,2.7971273E4,2.6001837E2,2.5684648E4,2.885735E4,3.0618402E2,2.8589883E2,2.7037946E2,2.5237462E2,2.944315E2,2.6885468E2,3.0129074E2,3.2313617E2,3.4752454E2,3.250087E2,3.1099448E2,2.8890256E2,3.3926965E2,2.5171721E2,2.6463342E2,2.5549228E2,2.6030353E2,2.4304218E2,2.6875607E2,2.5202715E2,3.0357123E2,3.2517038E2,2.7469885E2,3.0142905E2,2.9510052E2,2.7593658E2,2.843436E2,2.6453543E2,2.4289449E2,2.2053545E2,2.2914587E2,2.624071E2,2.5045978E2,2.786911E2,3.0404187E2,2.879762E2,2.2888118E2,2.749606E2,2.2574617E2,2.4684673E2,2.295383E2,2.1549443E2,2.710974E2,2.8954813E2,2.604292E2,2.3020662E2,2.630899E2,3.3127597E2],"categories":[],"categories_nodes":[],"categories_segments":[],"categories_sizes":[],"default_left":[0,0,0,0,0,0,0,0,0,0,0,0,0,0,0,0,0,0,0,0,0,0,0,0,0,0,0,0,0,0,0,0,0,0,0,0,0,0,0,0,0,0,0,0,0,0,0,0,0,0,0,0,0,0,0,0,0,0,0,0,0,0,0,0,0,0,0,0,0,0,0,0,0,0,0,0,0,0,0,0,0,0,0,0,0,0,0,0,0,0,0,0,0,0,0,0,0,0,0,0,0,0,0,0,0,0,0,0,0,0,0],"id":14,"left_children":[1,3,5,7,9,11,13,15,17,19,21,23,25,27,29,31,33,35,37,39,41,43,45,47,49,51,53,55,57,59,61,-1,63,65,67,69,71,73,75,-1,77,79,81,83,85,-1,87,-1,89,91,93,95,97,99,-1,-1,101,103,-1,105,-1,107,109,-1,-1,-1,-1,-1,-1,-1,-1,-1,-1,-1,-1,-1,-1,-1,-1,-1,-1,-1,-1,-1,-1,-1,-1,-1,-1,-1,-1,-1,-1,-1,-1,-1,-1,-1,-1,-1,-1,-1,-1,-1,-1,-1,-1,-1,-1,-1,-1],"loss_changes":[1.9839058E11,1.142109E11,2.87918E10,3.0263162E11,4.5829063E10,8.700664E10,2.2213558E10,1.3178923E11,3.9168508E10,8.250196E9,5.8521027E9,7.128954E10,6.791627E9,2.905342E9,6.364856E8,6.5819116E9,3.327656E10,1.343855E10,5.691146E9,3.6820746E9,2.2434284E9,2.1076378E9,5.8445005E8,4.2320527E9,7.725908E9,6.8933386E9,2.5904415E9,9.321185E8,4.141613E9,4.4407194E8,3.460956E8,0E0,8.1767956E9,1.1105468E10,5.4258565E9,2.6282557E9,1.0955522E10,4.1009807E9,1.6227041E9,0E0,4.5717914E8,2.5915556E9,6.568018E8,2.6109542E8,5.98868E8,0E0,1.0580132E9,0E0,3.260285E9,7.4847355E9,2.7628012E9,1.1160781E9,2.428502E9,1.6874209E9,0E0,0E0,1.7992909E8,1.3118996E9,0E0,1.327104E8,0E0,4.34176E8,3.472425E8,0E0,0E0,0E0,0E0,0E0,0E0,0E0,0E0,0E0,0E0,0E0,0E0,0E0,0E0,0E0,0E0,0E0,0E0,0E0,0E0,0E0,0E0,0E0,0E0,0E0,0E0,0E0,0E0,0E0,0E0,0E0,0E0,0E0,0E0,0E0,0E0,0E0,0E0,0E0,0E0,0E0,0E0,0E0,0E0,0E0,0E0,0E0,0E0],"parents":[2147483647,0,0,1,1,2,2,3,3,4,4,5,5,6,6,7,7,8,8,9,9,10,10,11,11,12,12,13,13,14,14,15,15,16,16,17,17,18,18,19,19,20,20,21,21,22,22,23,23,24,24,25,25,26,26,27,27,28,28,29,29,30,30,32,32,33,33,34,34,35,35,36,36,37,37,38,38,40,40,41,41,42,42,43,43,44,44,46,46,48,48,49,49,50,50,51,51,52,52,53,53,56,56,57,57,59,59,61,61,62,62],"right_children":[2,4,6,8,10,12,14,16,18,20,22,24,26,28,30,32,34,36,38,40,42,44,46,48,50,52,54,56,58,60,62,-1,64,66,68,70,72,74,76,-1,78,80,82,84,86,-1,88,-1,90,92,94,96,98,100,-1,-1,102,104,-1,106,-1,108,110,-1,-1,-1,-1,-1,-1,-1,-1,-1,-1,-1,-1,-1,-1,-1,-1,-1,-1,-1,-1,-1,-1,-1,-1,-1,-1,-1,-1,-1,-1,-1,-1,-1,-1,-1,-1,-1,-1,-1,-1,-1,-1,-1,-1,-1,-1,-1,-1],"split_conditions":[5E0,3.8E1,3.7E1,2.5E1,3.37E2,1.62E2,3.35E2,6.7E1,2.34E2,2.011E3,2.011E3,6.5E1,2.43E2,2.7E2,2.011E3,2.003E3,1.49E2,1.87E2,2.017E3,4E1,3.17E2,3.58E2,3.42E2,2.003E3,1.46E2,1.8E2,2.017E3,2.011E3,3.15E2,3.57E2,3.64E2,2.7308313E2,2.016E3,8.8E1,2.014E3,1.72E2,2.013E3,3.7E1,2.36E2,2.8010712E2,2.009E3,2.74E2,2.015E3,2.01E3,2.008E3,2.6392114E2,5.1E1,2.3985344E2,4.9E1,9E1,2.007E3,2.005E3,2.013E3,2.004E3,2.0038779E2,2.5635748E2,2.015E3,2.012E3,2.437822E2,2.007E3,2.6001837E2,3.6E2,2.017E3,3.0618402E2,2.8589883E2,2.7037946E2,2.5237462E2,2.944315E2,2.6885468E2,3.0129074E2,3.2313617E2,3.4752454E2,3.250087E2,3.1099448E2,2.8890256E2,3.3926965E2,2.5171721E2,2.6463342E2,2.5549228E2,2.6030353E2,2.4304218E2,2.6875607E2,2.5202715E2,3.0357123E2,3.2517038E2,2.7469885E2,3.0142905E2,2.9510052E2,2.7593658E2,2.843436E2,2.6453543E2,2.4289449E2,2.2053545E2,2.2914587E2,2.624071E2,2.5045978E2,2.786911E2,3.0404187E2,2.879762E2,2.2888118E2,2.749606E2,2.2574617E2,2.4684673E2,2.295383E2,2.1549443E2,2.710974E2,2.8954813E2,2.604292E2,2.3020662E2,2.630899E2,3.3127597E2],"split_indices":[2,3,3,3,0,0,0,0,0,6,6,0,0,0,6,6,0,0,6,3,0,0,0,6,0,0,6,6,0,0,0,0,6,0,6,0,6,3,0,0,6,0,6,6,6,0,3,0,0,0,6,6,6,6,0,0,6,6,0,6,0,0,6,0,0,0,0,0,0,0,0,0,0,0,0,0,0,0,0,0,0,0,0,0,0,0,0,0,0,0,0,0,0,0,0,0,0,0,0,0,0,0,0,0,0,0,0,0,0,0,0],"split_type":[0,0,0,0,0,0,0,0,0,0,0,0,0,0,0,0,0,0,0,0,0,0,0,0,0,0,0,0,0,0,0,0,0,0,0,0,0,0,0,0,0,0,0,0,0,0,0,0,0,0,0,0,0,0,0,0,0,0,0,0,0,0,0,0,0,0,0,0,0,0,0,0,0,0,0,0,0,0,0,0,0,0,0,0,0,0,0,0,0,0,0,0,0,0,0,0,0,0,0,0,0,0,0,0,0,0,0,0,0,0,0],"sum_hessian":[1.16054E5,8.2907E4,3.3147E4,5.9585E4,2.3322E4,2.32E4,9.947E3,3.9075E4,2.051E4,1.721E4,6.112E3,1.4769E4,8.431E3,7.242E3,2.705E3,1.5372E4,2.3703E4,1.5127E4,5.383E3,9.694E3,7.516E3,3.442E3,2.67E3,5.716E3,9.053E3,7.376E3,1.055E3,1.503E3,5.739E3,1.512E3,1.193E3,9.27E2,1.4445E4,1.9046E4,4.657E3,4.462E3,1.0665E4,5.023E3,3.6E2,1.754E3,7.94E3,5.562E3,1.954E3,2.583E3,8.59E2,4.6E2,2.21E3,3.41E2,5.375E3,7.55E3,1.503E3,1.638E3,5.738E3,9.81E2,7.4E1,8.41E2,6.62E2,3.933E3,1.806E3,1.082E3,4.3E2,1.082E3,1.11E2,1.1724E4,2.721E3,4.878E3,1.4168E4,3.316E3,1.341E3,9.76E2,3.486E3,7.054E3,3.611E3,3.577E3,1.446E3,3.2E1,3.28E2,6.175E3,1.765E3,1.456E3,4.106E3,1.115E3,8.39E2,2.295E3,2.88E2,5.55E2,3.04E2,7.82E2,1.428E3,3.988E3,1.387E3,2.302E3,5.248E3,4.3E2,1.073E3,2.82E2,1.356E3,3.793E3,1.945E3,1.3E2,8.51E2,3.53E2,3.09E2,2.466E3,1.467E3,5.92E2,4.9E2,9.46E2,1.36E2,7.4E1,3.7E1],"tree_param":{"num_deleted":"0","num_feature":"7","num_nodes":"111","size_leaf_vector":"1"}},{"base_weights":[2.7572262E4,2.3242742E4,2.9736637E4,2.5802164E4,2.262251E4,3.075691E4,2.7169139E4,2.5336016E4,2.909706E4,2.110488E4,2.3328074E4,3.1586744E4,2.8624863E4,2.460663E4,2.7756328E4,2.2180392E2,2.552843E4,3.04414E2,2.5548186E2,2.28206E4,2.0605092E4,2.4987594E4,2.2151426E4,2.9357818E4,3.536092E4,2.783409E4,3.0692238E4,2.7846164E2,2.389995E4,2.6106908E4,2.8961139E4,2.5837066E4,2.3923062E2,2.23428E4,2.6222455E4,2.0304072E4,2.2656012E4,2.7626812E4,2.4092629E4,2.133344E4,2.459777E4,3.162267E4,2.8035697E4,3.0857348E4,3.6381758E4,2.8504549E4,2.670896E4,3.1663623E4,2.9403357E4,2.2295758E4,2.4692547E4,2.8638176E4,2.4341625E4,3.2462088E4,2.621414E4,2.720192E2,2.5603113E2,2.3768112E2,2.2077486E2,2.738333E2,2.2313788E2,2.1820433E2,1.9689182E2,2.4038681E2,1.9231314E2,2.8786768E2,2.6457758E2,2.4706621E2,2.2553036E2,2.0968549E2,2.3847318E2,2.4180345E2,2.7435907E2,3.1883905E2,2.9625E2,2.7632678E2,3.0556674E2,2.9832236E2,3.2866187E2,3.6999838E2,3.2946164E2,3.0465842E2,2.805305E2,2.6897363E2,2.383684E2,3.0860645E2,3.293333E2,2.864558E2,3.033135E2,2.1861174E2,2.4936488E2,2.3124655E2,2.5350043E2,2.76982E2,2.9699155E2,2.3928056E2,2.70867E2,3.0057715E2,3.3421097E2,2.5543997E2,2.8185657E2],"categories":[],"categories_nodes":[],"categories_segments":[],"categories_sizes":[],"default_left":[0,0,0,0,0,0,0,0,0,0,0,0,0,0,0,0,0,0,0,0,0,0,0,0,0,0,0,0,0,0,0,0,0,0,0,0,0,0,0,0,0,0,0,0,0,0,0,0,0,0,0,0,0,0,0,0,0,0,0,0,0,0,0,0,0,0,0,0,0,0,0,0,0,0,0,0,0,0,0,0,0,0,0,0,0,0,0,0,0,0,0,0,0,0,0,0,0,0,0,0,0],"id":15,"left_children":[1,3,5,7,9,11,13,15,17,19,21,23,25,27,29,-1,31,-1,-1,33,35,37,39,41,43,45,47,-1,49,51,53,55,-1,57,59,61,63,65,67,69,71,73,75,77,79,81,83,85,87,89,91,93,95,97,99,-1,-1,-1,-1,-1,-1,-1,-1,-1,-1,-1,-1,-1,-1,-1,-1,-1,-1,-1,-1,-1,-1,-1,-1,-1,-1,-1,-1,-1,-1,-1,-1,-1,-1,-1,-1,-1,-1,-1,-1,-1,-1,-1,-1,-1,-1],"loss_changes":[1.09073714E12,6.1045998E10,2.025681E11,1.088317E10,3.2979812E10,9.739593E10,3.255514E10,3.4634465E9,3.6639867E9,8.0457236E9,4.109579E10,3.3532202E11,2.4610079E10,8.782348E9,3.49417E10,0E0,2.477523E9,0E0,0E0,3.040215E9,4.294443E9,2.021707E10,2.4466948E10,7.440066E10,6.7106767E10,7.746355E9,4.452778E9,0E0,3.7659607E9,3.323147E10,9.889802E10,9.730785E8,0E0,2.1751398E8,6.0955034E8,5.8405683E9,4.1640264E9,2.2650552E9,5.691146E9,8.092123E9,3.036414E9,3.8881198E9,1.5295578E10,4.680319E9,2.446118E10,5.390729E9,1.6460022E9,1.4701036E9,4.40533E8,7.551058E8,1.7467965E9,2.283012E9,4.437836E9,9.500623E9,6.9656904E9,0E0,0E0,0E0,0E0,0E0,0E0,0E0,0E0,0E0,0E0,0E0,0E0,0E0,0E0,0E0,0E0,0E0,0E0,0E0,0E0,0E0,0E0,0E0,0E0,0E0,0E0,0E0,0E0,0E0,0E0,0E0,0E0,0E0,0E0,0E0,0E0,0E0,0E0,0E0,0E0,0E0,0E0,0E0,0E0,0E0,0E0],"parents":[2147483647,0,0,1,1,2,2,3,3,4,4,5,5,6,6,7,7,8,8,9,9,10,10,11,11,12,12,13,13,14,14,16,16,19,19,20,20,21,21,22,22,23,23,24,24,25,25,26,26,28,28,29,29,30,30,31,31,33,33,34,34,35,35,36,36,37,37,38,38,39,39,40,40,41,41,42,42,43,43,44,44,45,45,46,46,47,47,48,48,49,49,50,50,51,51,52,52,53,53,54,54],"right_children":[2,4,6,8,10,12,14,16,18,20,22,24,26,28,30,-1,32,-1,-1,34,36,38,40,42,44,46,48,-1,50,52,54,56,-1,58,60,62,64,66,68,70,72,74,76,78,80,82,84,86,88,90,92,94,96,98,100,-1,-1,-1,-1,-1,-1,-1,-1,-1,-1,-1,-1,-1,-1,-1,-1,-1,-1,-1,-1,-1,-1,-1,-1,-1,-1,-1,-1,-1,-1,-1,-1,-1,-1,-1,-1,-1,-1,-1,-1,-1,-1,-1,-1,-1,-1],"split_conditions":[8E0,1.1E1,5E0,7E0,2.4E1,3.8E1,1.1E1,2.003E3,5E0,4E0,9E0,2.4E1,4.9E1,1E1,6E0,2.2180392E2,3E0,3.04414E2,2.5548186E2,7E0,7E0,2E0,1.2E1,3E0,1.1E1,2.012E3,2.011E3,2.7846164E2,9E0,1E1,9E0,1E0,2.3923062E2,1E0,5E0,2E0,5E0,1E0,5E0,7E0,7E0,2.017E3,2.2E1,1E1,2.2E1,4E1,2.3E1,1.8E1,1.7E1,4.7E1,6E0,1.8E1,2.1E1,2.6E1,1.2E1,2.720192E2,2.5603113E2,2.3768112E2,2.2077486E2,2.738333E2,2.2313788E2,2.1820433E2,1.9689182E2,2.4038681E2,1.9231314E2,2.8786768E2,2.6457758E2,2.4706621E2,2.2553036E2,2.0968549E2,2.3847318E2,2.4180345E2,2.7435907E2,3.1883905E2,2.9625E2,2.7632678E2,3.0556674E2,2.9832236E2,3.2866187E2,3.6999838E2,3.2946164E2,3.0465842E2,2.805305E2,2.6897363E2,2.383684E2,3.0860645E2,3.293333E2,2.864558E2,3.033135E2,2.1861174E2,2.4936488E2,2.3124655E2,2.5350043E2,2.76982E2,2.9699155E2,2.3928056E2,2.70867E2,3.0057715E2,3.3421097E2,2.5543997E2,2.8185657E2],"split_indices":[1,3,2,1,3,3,1,6,2,5,5,3,3,3,5,0,5,0,0,1,1,1,5,5,1,6,6,0,1,3,5,1,0,1,2,1,2,1,2,1,1,6,3,1,1,3,1,1,1,3,5,1,3,3,5,0,0,0,0,0,0,0,0,0,0,0,0,0,0,0,0,0,0,0,0,0,0,0,0,0,0,0,0,0,0,0,0,0,0,0,0,0,0,0,0,0,0,0,0,0,0],"split_type":[0,0,0,0,0,0,0,0,0,0,0,0,0,0,0,0,0,0,0,0,0,0,0,0,0,0,0,0,0,0,0,0,0,0,0,0,0,0,0,0,0,0,0,0,0,0,0,0,0,0,0,0,0,0,0,0,0,0,0,0,0,0,0,0,0,0,0,0,0,0,0,0,0,0,0,0,0,0,0,0,0,0,0,0,0,0,0,0,0,0,0,0,0,0,0,0,0,0,0,0,0],"sum_hessian":[1.16471E5,3.8823E4,7.7648E4,7.565E3,3.1258E4,5.5559E4,2.2089E4,6.635E3,9.3E2,9.93E3,2.1328E4,3.9983E4,1.5576E4,4.126E3,1.7963E4,3.88E2,6.247E3,6.69E2,2.61E2,2.23E3,7.7E3,8.84E3,1.2488E4,2.5143E4,1.484E4,1.1277E4,4.299E3,7.32E2,3.394E3,7.592E3,1.0371E4,5.227E3,1.02E3,1.962E3,2.68E2,6.724E3,9.76E2,2.231E3,6.609E3,9.366E3,3.122E3,9.259E3,1.5884E4,2.748E3,1.2092E4,7.051E3,4.226E3,2.438E3,1.861E3,1.132E3,2.262E3,3.113E3,4.479E3,4.555E3,5.816E3,7.48E2,4.479E3,2.94E2,1.668E3,2.02E2,6.6E1,1.93E3,4.794E3,6.91E2,2.85E2,1.108E3,1.123E3,4.714E3,1.895E3,8.187E3,1.179E3,2.73E3,3.92E2,8.175E3,1.084E3,1.3705E4,2.179E3,1.83E3,9.18E2,1.024E4,1.852E3,1.307E3,5.744E3,3.958E3,2.68E2,1.509E3,9.29E2,1.042E3,8.19E2,9.8E2,1.52E2,6.79E2,1.583E3,1.665E3,1.448E3,3.901E3,5.78E2,1.308E3,3.247E3,4.351E3,1.465E3],"tree_param":{"num_deleted":"0","num_feature":"7","num_nodes":"101","size_leaf_vector":"1"}},{"base_weights":[2.7292508E4,2.8096016E4,2.527578E4,2.8831791E4,2.6327248E4,2.5866566E4,2.3836945E4,2.72783E4,3.211964E4,2.5540799E4,2.8517664E4,2.4424936E4,2.8297336E4,2.2855342E4,2.6340564E4,2.9432703E4,2.592561E4,3.2851953E4,2.987976E4,2.6871271E4,2.516939E4,2.9370818E4,2.7387234E4,2.7104693E4,2.2612633E4,2.865085E4,2.5891555E4,2.4374959E4,2.2520035E4,2.6962354E4,2.5516217E4,2.6731198E2,2.960215E4,2.5242984E4,2.8499396E4,3.3550043E4,3.1491627E4,3.0156547E4,2.561154E4,2.756335E2,2.5723623E4,2.5926107E4,2.4580383E4,3.0016832E4,2.772647E4,2.5891037E2,2.7667055E4,2.3676096E2,2.7314217E4,2.2260484E4,2.4609156E4,2.683306E4,2.9257812E4,2.6342414E4,1.9473013E2,2.5720914E2,2.3274742E4,2.1905807E4,2.3877992E2,2.7516766E4,2.5446391E2,2.5206656E4,2.823259E4,2.995039E2,2.807053E2,2.6651913E2,2.4820265E2,2.9225696E2,2.7443127E2,3.2043805E2,3.4024908E2,3.2012048E2,3.0449017E2,2.8788904E2,3.0491772E2,3.3049734E2,2.4254045E2,2.4664214E2,2.755727E2,2.5275249E2,2.6410797E2,2.3959482E2,2.5467163E2,2.9731866E2,3.2167303E2,2.68104E2,2.936919E2,2.7162497E2,2.889329E2,2.7773248E2,2.593761E2,2.3763982E2,2.159219E2,2.1828247E2,2.5434161E2,2.431156E2,2.7317438E2,2.9855344E2,2.8156232E2,2.4111134E2,2.733641E2,2.2860312E2,2.630405E2,2.2390181E2,2.109138E2,2.6681506E2,2.8489926E2,2.5752466E2,2.3797346E2,2.5793628E2,3.254522E2],"categories":[],"categories_nodes":[],"categories_segments":[],"categories_sizes":[],"default_left":[0,0,0,0,0,0,0,0,0,0,0,0,0,0,0,0,0,0,0,0,0,0,0,0,0,0,0,0,0,0,0,0,0,0,0,0,0,0,0,0,0,0,0,0,0,0,0,0,0,0,0,0,0,0,0,0,0,0,0,0,0,0,0,0,0,0,0,0,0,0,0,0,0,0,0,0,0,0,0,0,0,0,0,0,0,0,0,0,0,0,0,0,0,0,0,0,0,0,0,0,0,0,0,0,0,0,0,0,0,0,0],"id":16,"left_children":[1,3,5,7,9,11,13,15,17,19,21,23,25,27,29,31,33,35,37,39,41,43,45,47,49,51,53,55,57,59,61,-1,63,65,67,69,71,73,75,-1,77,79,81,83,85,-1,87,-1,89,91,93,95,97,99,-1,-1,101,103,-1,105,-1,107,109,-1,-1,-1,-1,-1,-1,-1,-1,-1,-1,-1,-1,-1,-1,-1,-1,-1,-1,-1,-1,-1,-1,-1,-1,-1,-1,-1,-1,-1,-1,-1,-1,-1,-1,-1,-1,-1,-1,-1,-1,-1,-1,-1,-1,-1,-1,-1,-1],"loss_changes":[1.8779577E11,1.0749162E11,2.7564966E10,2.991E11,4.138415E10,8.162745E10,2.3145742E10,1.15494355E11,2.9922165E10,8.2187387E9,5.4164193E9,7.103578E10,6.6909635E9,2.9915873E9,7.035945E8,6.2484644E9,4.2349887E10,1.2416188E10,4.7248835E9,2.3988797E9,5.6402903E9,3.0579098E9,4.512809E8,3.6254515E9,5.6439603E9,7.611089E9,2.7570995E9,1.24348E9,4.2365092E9,5.856297E8,2.856059E8,0E0,6.8734157E9,1.088317E10,3.1339315E9,5.6046387E9,1.6452157E9,1.1227628E9,2.1266432E9,0E0,2.2089564E9,1.2711363E9,3.7617664E9,6.4723354E8,7.8669414E8,0E0,6.599475E8,0E0,2.8169994E9,7.019692E9,2.4525537E9,1.6771973E9,2.9077012E9,1.6762798E9,0E0,0E0,2.712535E8,1.0823926E9,0E0,1.4044365E8,0E0,2.1331968E8,3.4911846E8,0E0,0E0,0E0,0E0,0E0,0E0,0E0,0E0,0E0,0E0,0E0,0E0,0E0,0E0,0E0,0E0,0E0,0E0,0E0,0E0,0E0,0E0,0E0,0E0,0E0,0E0,0E0,0E0,0E0,0E0,0E0,0E0,0E0,0E0,0E0,0E0,0E0,0E0,0E0,0E0,0E0,0E0,0E0,0E0,0E0,0E0,0E0,0E0],"parents":[2147483647,0,0,1,1,2,2,3,3,4,4,5,5,6,6,7,7,8,8,9,9,10,10,11,11,12,12,13,13,14,14,15,15,16,16,17,17,18,18,19,19,20,20,21,21,22,22,23,23,24,24,25,25,26,26,27,27,28,28,29,29,30,30,32,32,33,33,34,34,35,35,36,36,37,37,38,38,40,40,41,41,42,42,43,43,44,44,46,46,48,48,49,49,50,50,51,51,52,52,53,53,56,56,57,57,59,59,61,61,62,62],"right_children":[2,4,6,8,10,12,14,16,18,20,22,24,26,28,30,32,34,36,38,40,42,44,46,48,50,52,54,56,58,60,62,-1,64,66,68,70,72,74,76,-1,78,80,82,84,86,-1,88,-1,90,92,94,96,98,100,-1,-1,102,104,-1,106,-1,108,110,-1,-1,-1,-1,-1,-1,-1,-1,-1,-1,-1,-1,-1,-1,-1,-1,-1,-1,-1,-1,-1,-1,-1,-1,-1,-1,-1,-1,-1,-1,-1,-1,-1,-1,-1,-1,-1,-1,-1,-1,-1,-1,-1,-1,-1,-1,-1,-1],"split_conditions":[5E0,2.55E2,2.56E2,1.72E2,3.37E2,1.6E2,3.35E2,6.7E1,2.34E2,2.73E2,2.011E3,6.5E1,2.43E2,2.7E2,2.011E3,2.003E3,1.5E2,2.013E3,2.017E3,2.012E3,2.009E3,3.58E2,3.42E2,2.003E3,1.46E2,1.8E2,2.017E3,2.009E3,3.15E2,3.57E2,3.64E2,2.6731198E2,2.016E3,8.6E1,2.012E3,1.87E2,2.11E2,1E0,2.36E2,2.756335E2,2.016E3,2.005E3,3.11E2,2.01E3,2.008E3,2.5891037E2,2.016E3,2.3676096E2,4.9E1,9E1,2.006E3,2.005E3,2.2E2,2.007E3,1.9473013E2,2.5720914E2,2.017E3,2.012E3,2.3877992E2,2.007E3,2.5446391E2,3.55E2,2.017E3,2.995039E2,2.807053E2,2.6651913E2,2.4820265E2,2.9225696E2,2.7443127E2,3.2043805E2,3.4024908E2,3.2012048E2,3.0449017E2,2.8788904E2,3.0491772E2,3.3049734E2,2.4254045E2,2.4664214E2,2.755727E2,2.5275249E2,2.6410797E2,2.3959482E2,2.5467163E2,2.9731866E2,3.2167303E2,2.68104E2,2.936919E2,2.7162497E2,2.889329E2,2.7773248E2,2.593761E2,2.3763982E2,2.159219E2,2.1828247E2,2.5434161E2,2.431156E2,2.7317438E2,2.9855344E2,2.8156232E2,2.4111134E2,2.733641E2,2.2860312E2,2.630405E2,2.2390181E2,2.109138E2,2.6681506E2,2.8489926E2,2.5752466E2,2.3797346E2,2.5793628E2,3.254522E2],"split_indices":[2,0,0,0,0,0,0,0,0,0,6,0,0,0,6,6,0,6,6,6,6,0,0,6,0,0,6,6,0,0,0,0,6,0,6,0,0,2,0,0,6,6,0,6,6,0,6,0,0,0,6,6,0,6,0,0,6,6,0,6,0,0,6,0,0,0,0,0,0,0,0,0,0,0,0,0,0,0,0,0,0,0,0,0,0,0,0,0,0,0,0,0,0,0,0,0,0,0,0,0,0,0,0,0,0,0,0,0,0,0,0],"split_type":[0,0,0,0,0,0,0,0,0,0,0,0,0,0,0,0,0,0,0,0,0,0,0,0,0,0,0,0,0,0,0,0,0,0,0,0,0,0,0,0,0,0,0,0,0,0,0,0,0,0,0,0,0,0,0,0,0,0,0,0,0,0,0,0,0,0,0,0,0,0,0,0,0,0,0,0,0,0,0,0,0,0,0,0,0,0,0,0,0,0,0,0,0,0,0,0,0,0,0,0,0,0,0,0,0,0,0,0,0,0,0],"sum_hessian":[1.16328E5,8.3176E4,3.3152E4,5.873E4,2.4446E4,2.349E4,9.662E3,3.9891E4,1.8839E4,1.7997E4,6.449E3,1.4752E4,8.738E3,6.948E3,2.714E3,1.5378E4,2.4513E4,1.4187E4,4.652E3,3.912E3,1.4085E4,3.661E3,2.788E3,5.946E3,8.806E3,7.609E3,1.129E3,1.243E3,5.705E3,1.529E3,1.185E3,9.17E2,1.4461E4,1.9383E4,5.13E3,9.36E3,4.827E3,4.363E3,2.89E2,2.426E3,1.486E3,6.146E3,7.939E3,2.616E3,1.045E3,4.54E2,2.334E3,3.49E2,5.597E3,7.496E3,1.31E3,1.916E3,5.693E3,1.052E3,7.7E1,5.49E2,6.94E2,3.94E3,1.765E3,1.107E3,4.22E2,1.073E3,1.12E2,1.1767E4,2.694E3,4.459E3,1.4924E4,3.024E3,2.106E3,2.26E3,7.1E3,3.2E3,1.627E3,8.76E2,3.487E3,4.1E1,2.48E2,9.51E2,5.35E2,2.646E3,3.5E3,4.686E3,3.253E3,2.323E3,2.93E2,6.82E2,3.63E2,1.67E3,6.64E2,4.183E3,1.414E3,2.296E3,5.2E3,3.06E2,1.004E3,3.17E2,1.599E3,3.674E3,2.019E3,3.32E2,7.2E2,6.18E2,7.6E1,2.454E3,1.486E3,6.11E2,4.96E2,7.61E2,3.12E2,7.6E1,3.6E1],"tree_param":{"num_deleted":"0","num_feature":"7","num_nodes":"111","size_leaf_vector":"1"}},{"base_weights":[2.7023535E4,2.273548E4,2.9167129E4,2.5257771E4,2.212445E4,3.0159322E4,2.6681443E4,2.4792562E4,2.84291E4,2.0656326E4,2.2805191E4,3.0934994E4,2.7977543E4,2.3359281E4,2.7146188E4,2.1650157E2,2.4984205E4,2.976601E2,2.5000462E2,2.2354568E4,2.0167258E4,2.4391814E4,2.1651203E4,2.8791008E4,3.430918E4,2.7111504E4,3.004981E4,2.6694446E2,2.2626912E4,2.5600816E4,2.822051E4,2.6357867E2,2.4742004E4,2.1652107E4,2.4428912E4,2.2225084E4,1.9866338E4,2.7127734E4,2.3497287E4,2.0852604E4,2.4134992E4,3.0718105E4,2.731603E4,2.9990607E4,3.5317562E4,2.7828076E4,2.6180227E4,3.0978984E4,2.8814764E4,2.2242734E4,2.4899167E2,2.8056027E4,2.3741447E4,3.1094363E4,2.5405951E4,2.4443042E2,2.6183725E2,2.2683897E2,2.1105603E2,2.5449568E2,2.1110387E2,2.1525568E2,2.3843886E2,1.9473459E2,2.2161665E2,2.827533E2,2.5945966E2,2.4072255E2,2.2012955E2,2.0497485E2,2.3319351E2,2.3735773E2,2.6826874E2,3.1083206E2,2.898018E2,2.669072E2,2.9367374E2,2.9012427E2,3.1904556E2,3.6220367E2,3.1526315E2,2.8037656E2,2.4596037E2,2.6362146E2,2.3392343E2,3.0187115E2,3.2279367E2,2.8050742E2,2.9752908E2,2.3173677E2,2.1312851E2,2.7253613E2,2.9125745E2,2.3471893E2,2.6643726E2,2.8375565E2,3.181622E2,2.4424083E2,2.7451883E2],"categories":[],"categories_nodes":[],"categories_segments":[],"categories_sizes":[],"default_left":[0,0,0,0,0,0,0,0,0,0,0,0,0,0,0,0,0,0,0,0,0,0,0,0,0,0,0,0,0,0,0,0,0,0,0,0,0,0,0,0,0,0,0,0,0,0,0,0,0,0,0,0,0,0,0,0,0,0,0,0,0,0,0,0,0,0,0,0,0,0,0,0,0,0,0,0,0,0,0,0,0,0,0,0,